348 128
Xiaomi 0.06396287 -0.15709066 0.16756362 -0.015582854 0.046561778 -0.32501316 0.068885125 0.07338101 -0.032906603 0.041399483 0.33011636 -0.13169219 -0.1146695 -0.20209129 0.20241833 0.039258998 -0.06718352 0.06957022 -0.09901182 0.12592863 0.19254315 0.23965678 0.05846351 -0.21693338 -0.17878495 0.080327705 -0.19233818 0.120823145 0.075415395 -0.07064927 -0.2579421 0.048424274 -0.0016951279 0.12750442 -0.13680503 0.09630778 0.37399733 0.006467325 0.22302555 -0.069029115 -0.027084397 0.17476183 -0.09133067 -0.14733809 0.10733873 0.006046187 -0.106053606 -0.19300792 -0.015631473 0.08127757 0.17405772 0.06629265 0.121610925 0.17171997 0.084134504 0.054255728 0.32993096 -0.117236346 -0.17991307 0.17902167 0.010639496 -0.018072888 0.092185274 -0.053754423 0.14763717 -0.04018672 0.004154922 0.10537327 -0.014588999 -0.17831597 0.1303658 -0.08222226 -0.24302606 -0.17064323 0.02310921 -0.17415006 -0.051699303 -0.041586485 -0.13202958 0.2362278 -0.0764016 -0.2261694 0.09997963 0.38408324 0.035813898 0.16851377 0.28364477 -0.17185678 0.12347133 0.2505015 -0.18131402 -0.20650488 0.02648134 -0.008442541 0.18869093 0.02939973 -0.28774154 -0.2939966 -0.015473239 -0.18044136 -0.3177779 0.052363317 0.07077994 0.07706894 0.062459387 -0.060466856 0.0680889 -0.06494855 0.04604222 -0.31698254 0.12617704 -0.09146746 0.07688504 0.19517699 -0.15653093 -0.021778159 -0.03426522 0.19217701 0.10488647 0.07654267 -0.20608121 -0.1527885 -0.050186835 0.15333736 -0.085785344 -0.16486116 -0.13483413 0.036137827
00pm 0.063090555 -0.14697632 0.17200208 -0.031749014 0.053321872 -0.33206984 0.0729489 0.062292024 -0.015767206 0.054207236 0.32575676 -0.12623554 -0.10158748 -0.21555072 0.19297303 0.034247372 -0.07184043 0.066550665 -0.08536769 0.13148889 0.18778549 0.23283535 0.05822312 -0.22485092 -0.17627358 0.090515986 -0.19390067 0.12092295 0.09495858 -0.051360864 -0.258049 0.059650503 -0.018936977 0.1370587 -0.13650855 0.09012268 0.36204636 0.014571723 0.23563385 -0.06964596 -0.0071900217 0.17790529 -0.0921204 -0.1477901 0.11261785 0.012139488 -0.0978712 -0.20907608 -0.028587159 0.06885648 0.18888137 0.0584209 0.111758925 0.17146675 0.080960065 0.05284381 0.31936505 -0.10705794 -0.17648433 0.16017355 0.011354255 -0.025496328 0.09540229 -0.048923265 0.1501307 -0.049567293 0.002500472 0.10029988 -0.008580284 -0.17442316 0.11075194 -0.0828761 -0.23572248 -0.15362224 0.007663267 -0.17042477 -0.049825393 -0.033532005 -0.1326142 0.2421405 -0.08993122 -0.22082523 0.08674931 0.367847 0.053516645 0.16311993 0.28112695 -0.1738997 0.12588266 0.25554562 -0.19552939 -0.21336053 0.008001293 -0.020339202 0.17344996 0.013644242 -0.27178773 -0.29092485 -0.011121526 -0.17515837 -0.31129533 0.04946185 0.08031967 0.06535137 0.048572376 -0.061467063 0.056147464 -0.077545054 0.04811849 -0.30265564 0.12596028 -0.080827445 0.07291764 0.18999872 -0.1598819 -0.010060401 -0.041215874 0.18659696 0.109248996 0.082984716 -0.21415381 -0.14726824 -0.054614063 0.15709914 -0.09248763 -0.17570336 -0.13729288 0.022683697
cost 0.055497695 -0.15635787 0.16208519 -0.039652005 0.058559015 -0.3316445 0.07547267 0.053602234 -0.042049162 0.04918196 0.32763547 -0.13051623 -0.13310724 -0.19434924 0.20833454 0.046764553 -0.06494112 0.060680736 -0.09471071 0.1543174 0.20297013 0.24572594 0.047699694 -0.21828808 -0.18350832 0.0826394 -0.21220413 0.11918506 0.070558704 -0.05988382 -0.26039022 0.040262852 -0.0072641545 0.1403675 -0.1288919 0.09171938 0.36411604 0.0077491608 0.22993518 -0.05547365 -0.010791923 0.17395781 -0.0730133 -0.14422026 0.09748112 0.020776093 -0.08725771 -0.20569856 -0.028825196 0.060935028 0.18713214 0.06888278 0.12712042 0.16536322 0.082464546 0.06105605 0.32415044 -0.10846077 -0.16868769 0.16931981 0.025267417 -0.037696343 0.09542333 -0.04741726 0.1477871 -0.03958451 0.0018464526 0.11176439 -0.033284314 -0.18419231 0.12713382 -0.103407405 -0.23700409 -0.16670129 0.013702256 -0.17619416 -0.07206894 -0.053937584 -0.13993052 0.23825158 -0.06927128 -0.23370665 0.08230033 0.3893459 0.045507446 0.16696633 0.27480268 -0.1669084 0.13064913 0.2514453 -0.19914955 -0.21261421 0.011699688 -0.015510027 0.18846908 0.021000413 -0.28520012 -0.28526044 -0.02699375 -0.19130541 -0.31137496 0.046308793 0.08674873 0.07484241 0.04189967 -0.05266137 0.07857932 -0.06958545 0.04723688 -0.32801905 0.12103728 -0.07431565 0.08071468 0.17141247 -0.15330371 -0.020440634 -0.036447834 0.19235638 0.10657345 0.06681083 -0.22241223 -0.13639502 -0.06749819 0.16796975 -0.10111961 -0.17330612 -0.12713556 0.030886691
upfront cost 0.05643202 -0.15312338 0.17564046 -0.032544095 0.052974146 -0.33631495 0.06390587 0.053250298 -0.037083056 0.043192804 0.33226195 -0.13489963 -0.12285591 -0.20508452 0.20198901 0.03988985 -0.07608099 0.059177473 -0.09530482 0.1437861 0.19678943 0.24478076 0.05049091 -0.21630043 -0.18738633 0.094694465 -0.20866144 0.12448514 0.061119944 -0.053196114 -0.25980186 0.042531416 -0.013343199 0.14290622 -0.1198932 0.079864055 0.35734954 0.004418557 0.22962882 -0.050444324 -0.01872783 0.1729733 -0.08172279 -0.13329749 0.09636581 0.0136753265 -0.08268007 -0.2003094 -0.030439325 0.0550565 0.18797317 0.05697311 0.119032495 0.1758151 0.075728595 0.057759147 0.319452 -0.108824566 -0.18294221 0.18001951 0.023392966 -0.038970247 0.10400165 -0.051095244 0.15158947 -0.044053566 -0.0024047394 0.10733169 -0.016607177 -0.18874869 0.12325224 -0.11035588 -0.24366347 -0.17453988 0.012358431 -0.17727943 -0.06195987 -0.0609362 -0.14051801 0.22771005 -0.07583876 -0.23143287 0.09552857 0.38895813 0.03592589 0.17353094 0.2627964 -0.15788205 0.12002448 0.24961722 -0.19950871 -0.20081747 0.013644692 -0.0057866657 0.18990645 0.012860572 -0.28296238 -0.28514662 -0.015487395 -0.19144757 -0.32086897 0.03207204 0.08825752 0.07825874 0.034185603 -0.05766559 0.07678655 -0.07267465 0.048202313 -0.3270315 0.12557407 -0.08744949 0.08590072 0.18292305 -0.15394247 -0.013504762 -0.0419177 0.18630934 0.10578266 0.06498768 -0.22551496 -0.14439104 -0.058469877 0.17039926 -0.104202434 -0.18230477 -0.13267963 0.025588606
pro 0.0793716 -0.1773292 0.15714495 -0.027968394 0.049093794 -0.32870144 0.067904174 0.061025843 -0.032352664 0.054361507 0.31299663 -0.14495711 -0.116784595 -0.23160867 0.21084245 0.029524915 -0.089830324 0.0665292 -0.09757821 0.13762018 0.18336393 0.21611871 0.06784244 -0.21097687 -0.19320682 0.091509014 -0.18924363 0.10537786 0.10406209 -0.07898654 -0.27295652 0.05673883 -0.02107562 0.12938808 -0.1476048 0.12811354 0.37477753 0.0016345714 0.23785092 -0.077482104 -0.0014356365 0.18986695 -0.09937644 -0.1573448 0.12817857 -0.007810813 -0.12537661 -0.22442201 -0.01961138 0.07602846 0.21125887 0.044008575 0.13339825 0.17039609 0.058272175 0.05756167 0.3237466 -0.12955122 -0.17819683 0.17307816 0.00251723 -0.004674391 0.090007104 -0.023529405 0.14334047 -0.041226786 -0.0004792004 0.096215494 0.0013921853 -0.19126 0.13243143 -0.091098465 -0.24504256 -0.16901037 0.015258896 -0.16722584 -0.06843701 -0.036703255 -0.11209975 0.27820355 -0.097898796 -0.2428956 0.11905062 0.3772268 0.0417955 0.1437315 0.29237896 -0.17365304 0.14976461 0.24510169 -0.18272837 -0.21957989 0.030789798 -0.012127528 0.17947748 0.03378882 -0.2997131 -0.30553895 -0.013737873 -0.188132 -0.30251533 0.07256686 0.057249542 0.06933776 0.0746032 -0.050220314 0.06323997 -0.07873329 0.05154321 -0.30904117 0.13511182 -0.08199325 0.10053944 0.202122 -0.16054995 -0.029692475 -0.041253988 0.19326022 0.14310306 0.0982514 -0.209153 -0.15894355 -0.081684455 0.17555651 -0.088123046 -0.17733598 -0.14100894 0.011411817
redmi note 0.07994026 -0.17701836 0.19061615 -0.043320995 0.055595078 -0.3209979 0.058660198 0.036094785 -0.035386838 0.035839166 0.31125462 -0.17329222 -0.15852663 -0.20644565 0.21005745 0.03744035 -0.09326347 0.043164767 -0.10600765 0.16111661 0.20517975 0.24927416 0.074698895 -0.23844896 -0.2240826 0.11997919 -0.21865004 0.097991906 0.07195333 -0.06512496 -0.28888357 0.06376314 -0.041466773 0.15707383 -0.124448545 0.10135567 0.38962024 0.032282464 0.22968803 -0.05757523 -0.012529827 0.18564233 -0.0875943 -0.14112426 0.12720706 0.008889765 -0.10412308 -0.22650646 -0.04435342 0.06419419 0.19110094 0.057751305 0.12662077 0.18731476 0.051503673 0.06699348 0.34440824 -0.108404286 -0.18067554 0.16218174 0.021713147 -0.0409666 0.12352953 -0.04700737 0.15496229 -0.03582704 -0.021733906 0.09304074 -0.01975044 -0.2200534 0.13318025 -0.12179631 -0.26097196 -0.18362384 0.017399566 -0.1714002 -0.074057266 -0.051964942 -0.15667318 0.23578383 -0.08273082 -0.24175195 0.10969587 0.3822332 0.02815166 0.14823015 0.29163465 -0.15757264 0.14038074 0.27103865 -0.21574308 -0.22789481 0.0014490595 -0.03310885 0.19517376 0.031162025 -0.3017875 -0.28615505 -0.036163557 -0.20911072 -0.31202188 0.048168927 0.08572214 0.0871606 0.061816208 -0.0570141 0.06682555 -0.07746368 0.04958614 -0.33893338 0.10852092 -0.09500513 0.10921193 0.17137828 -0.17078684 0.00041979423 -0.044249326 0.20316462 0.13708122 0.08224252 -0.2111255 -0.15671772 -0.08890638 0.20303814 -0.10361526 -0.18176383 -0.14889891 0.037661992
note 0.07239232 -0.17604992 0.18623747 -0.037431814 0.05885091 -0.3310697 0.06195835 0.044981286 -0.02280126 0.033738445 0.31189466 -0.17177367 -0.15764575 -0.20938452 0.20896837 0.047508586 -0.08845363 0.04757363 -0.09626393 0.17435452 0.21270864 0.25036606 0.070122585 -0.24159373 -0.22750857 0.120589435 -0.21443482 0.09989258 0.07782443 -0.064237766 -0.28445667 0.055817623 -0.04818124 0.16122587 -0.12711522 0.11427105 0.38978136 0.031073926 0.23930614 -0.06661035 -0.024290247 0.19426171 -0.0794341 -0.14652225 0.13631058 0.010394371 -0.103995994 -0.22183178 -0.044843853 0.06270184 0.18659696 0.055127107 0.12849325 0.19408053 0.058796093 0.060818058 0.34033412 -0.100595266 -0.18245713 0.14825809 0.017076993 -0.043389093 0.12281519 -0.060133345 0.1621101 -0.02948114 -0.025245473 0.09992397 -0.016171582 -0.20794597 0.1349571 -0.12869576 -0.26605907 -0.17633888 0.01587714 -0.17234321 -0.07833553 -0.052772082 -0.15156686 0.24569649 -0.08493782 -0.24973002 0.10973477 0.38779768 0.035800785 0.1371379 0.29732364 -0.16547994 0.14671054 0.26329985 -0.20479141 -0.23691149 -0.004478566 -0.03203257 0.20535183 0.031459324 -0.30435267 -0.2841653 -0.03320348 -0.20637695 -0.32704213 0.051704682 0.07741749 0.08607622 0.060299627 -0.046591263 0.06429126 -0.078899175 0.037349574 -0.34393212 0.10733027 -0.096002966 0.10026701 0.17194848 -0.16169775 -0.005902999 -0.031407215 0.20038262 0.13785389 0.07180916 -0.21791801 -0.15017825 -0.08886234 0.19718303 -0.102102704 -0.18745746 -0.13220134 0.039029837
128gb 0.076118246 -0.16571815 0.18595953 -0.044688888 0.05174239 -0.3394031 0.061429556 0.051492274 -0.033304937 0.033203032 0.30989027 -0.16180757 -0.15462758 -0.21088538 0.2205185 0.04407696 -0.09237132 0.05269116 -0.106052704 0.17663312 0.21033749 0.24494815 0.073033 -0.24706225 -0.21933682 0.11659523 -0.22012031 0.0988932 0.08461594 -0.06408131 -0.2942844 0.06749265 -0.040277254 0.15028715 -0.1246129 0.11224454 0.3916261 0.03511553 0.22580115 -0.059533503 -0.016032524 0.19659454 -0.078954875 -0.14020647 0.13068664 0.019412847 -0.11658689 -0.2280332 -0.041324437 0.06655124 0.19334044 0.06306742 0.13337697 0.19632319 0.052904855 0.07396683 0.33693177 -0.09840251 -0.17638992 0.1530966 0.0120927645 -0.03909616 0.11818326 -0.05768954 0.15666594 -0.029778328 -0.017022528 0.09532027 -0.020817282 -0.21691737 0.12981106 -0.1300827 -0.26408833 -0.18486026 0.020975932 -0.17006026 -0.08368905 -0.06160032 -0.15253845 0.23967831 -0.08035524 -0.2534871 0.116383895 0.39435914 0.040130034 0.14171655 0.29342288 -0.15855218 0.14745244 0.25970998 -0.21735908 -0.23069417 0.006874622 -0.022719648 0.19122714 0.040239155 -0.29473403 -0.28147438 -0.022348 -0.21988535 -0.32891768 0.05640709 0.094267525 0.08844951 0.060366753 -0.05485444 0.08024308 -0.082377255 0.03350367 -0.3477561 0.114248775 -0.08972094 0.09849925 0.17318028 -0.1609008 -0.01375094 -0.02867172 0.19606753 0.14032207 0.08140807 -0.21747118 -0.15545355 -0.08454828 0.18878365 -0.10805284 -0.18842426 -0.13543408 0.027572319
black 0.07700102 -0.16746649 0.15712671 -0.018197918 0.071339004 -0.31977308 0.069185704 0.07429967 -0.007455287 0.068124935 0.33685365 -0.13359743 -0.101152584 -0.2260963 0.20211412 0.038808554 -0.086474165 0.065693006 -0.11074585 0.14656591 0.1784356 0.20631868 0.049731117 -0.22260004 -0.20418297 0.07512297 -0.19838949 0.11801244 0.09690018 -0.06762225 -0.25248656 0.06377498 -0.0015259137 0.12455191 -0.13718233 0.11869027 0.36141035 -0.009866959 0.23785912 -0.062681 -0.031707525 0.17283404 -0.109550625 -0.1762075 0.114505194 -0.021188961 -0.1098162 -0.21253465 -0.02180375 0.089181736 0.19897796 0.062118445 0.13054736 0.1615216 0.06824859 0.062156 0.3386415 -0.12013905 -0.18560301 0.18814126 -0.01251037 0.003919022 0.08308502 -0.01924373 0.14990139 -0.03678422 0.021320099 0.10833118 -0.014044805 -0.1660735 0.12163034 -0.06512629 -0.23520032 -0.1615287 0.03603559 -0.19718553 -0.04996824 -0.036787026 -0.110910974 0.26304492 -0.08670624 -0.2511138 0.10840407 0.3808685 0.040326633 0.16461873 0.29239047 -0.17081249 0.13126062 0.25304 -0.16740523 -0.2198672 0.033705086 -0.009240706 0.1731164 0.023430582 -0.29776517 -0.32602614 0.0025817964 -0.19114877 -0.31833133 0.057873856 0.04056387 0.065789446 0.059946314 -0.04664212 0.06012811 -0.07839406 0.060511257 -0.3131323 0.13713922 -0.07798619 0.08901882 0.21280237 -0.15590738 -0.039245065 -0.051590133 0.1937081 0.121670984 0.104588136 -0.20262596 -0.16345526 -0.049920343 0.17383248 -0.08498959 -0.14686099 -0.12643783 0.020428106
note 11 0.08097276 -0.16709024 0.17517827 -0.03821482 0.05834158 -0.32792982 0.06523918 0.045697864 -0.0355444 0.0382785 0.3126894 -0.16588213 -0.15668766 -0.20461865 0.22718462 0.054524176 -0.10267773 0.057386562 -0.10631711 0.17863247 0.21370289 0.25432208 0.07388237 -0.23311388 -0.22579212 0.11913382 -0.21743688 0.09817903 0.07794981 -0.06038278 -0.2904184 0.05485594 -0.029949205 0.15147851 -0.14303264 0.10403261 0.39461768 0.027983516 0.23582096 -0.06588238 -0.022151683 0.19492215 -0.077080086 -0.1507667 0.11951643 0.011983687 -0.11373689 -0.22664437 -0.039263822 0.062267907 0.20241998 0.05230076 0.13398063 0.19552661 0.048496626 0.07223018 0.34987682 -0.114606485 -0.1865179 0.15459819 0.010776382 -0.04058182 0.11237555 -0.054724608 0.16126354 -0.032702662 -0.01401931 0.09508897 -0.016765183 -0.21290807 0.13555089 -0.11456068 -0.2609865 -0.17805207 0.014909328 -0.16670097 -0.081943564 -0.046327367 -0.15752377 0.25385788 -0.0849983 -0.2500897 0.10592469 0.3838205 0.023450563 0.1375508 0.2930272 -0.16152966 0.14846669 0.27382174 -0.21587785 -0.23108566 0.00023723306 -0.035816293 0.2023216 0.031109903 -0.30406746 -0.28350374 -0.023642354 -0.21496293 -0.3227986 0.050128188 0.08100626 0.07588312 0.05081081 -0.04834031 0.082919724 -0.0649356 0.036324203 -0.34396017 0.12535797 -0.09253945 0.10078738 0.1825497 -0.16023962 -0.0124221835 -0.04637135 0.20138967 0.15292422 0.08286482 -0.2191209 -0.16179682 -0.08897717 0.19705103 -0.10131812 -0.19637118 -0.15567896 0.03233173
grey 0.06259211 -0.16889839 0.18371533 -0.025681984 0.049007133 -0.3464077 0.08717693 0.035229117 -0.04096946 0.02841997 0.3269772 -0.15833957 -0.13900638 -0.2287815 0.22032523 0.04761868 -0.07556355 0.07180074 -0.0883056 0.17077099 0.201024 0.2887143 0.04251214 -0.26347694 -0.21470195 0.101019435 -0.23779564 0.103583604 0.07828895 -0.05731471 -0.287178 0.06810758 -0.03317401 0.15908502 -0.113621816 0.116344795 0.3859228 0.009290471 0.21691573 -0.06914326 -0.017836986 0.20610096 -0.06685819 -0.1452858 0.13147779 0.014311894 -0.12677164 -0.24251759 -0.04998161 0.06779082 0.22263458 0.061266102 0.14445539 0.17283 0.082303904 0.054532845 0.34161612 -0.09983446 -0.18561575 0.16371617 0.010540504 -0.04272292 0.1146992 -0.05651118 0.13827108 -0.047548644 -0.024861451 0.111270875 -0.023977363 -0.20692012 0.12457129 -0.118232585 -0.28860763 -0.17042357 0.007302082 -0.18272519 -0.06934037 -0.050065912 -0.17214274 0.2508761 -0.076585226 -0.24611871 0.1192408 0.4262134 0.06900367 0.15311736 0.3155342 -0.17371015 0.15003979 0.27685323 -0.21823916 -0.24878874 -0.0013577562 -0.011014616 0.22991428 0.031047009 -0.299039 -0.2891262 -0.039524794 -0.21966691 -0.32123035 0.033212785 0.09341315 0.100353725 0.0577113 -0.055635925 0.07548632 -0.056410268 0.04889389 -0.35917708 0.14924897 -0.0859299 0.0929602 0.19160557 -0.18954208 -0.016712274 -0.012183977 0.18888707 0.10897353 0.08805589 -0.2246847 -0.14237115 -0.0770727 0.18015337 -0.08821982 -0.20062722 -0.14008759 0.037226137
00 upfront 0.08293288 -0.18083522 0.16749148 -0.032651953 0.049901336 -0.34435022 0.0689338 0.0707891 -0.0040495577 0.04317505 0.32330546 -0.15406771 -0.102164455 -0.21697755 0.2103584 0.034651943 -0.09250885 0.06359828 -0.104418695 0.14822327 0.19796197 0.230194 0.049058497 -0.22827704 -0.19345652 0.08810567 -0.2007055 0.09869194 0.11107718 -0.062424656 -0.26786515 0.07248075 -0.0025173547 0.13744114 -0.14325275 0.12325899 0.37926874 0.022232154 0.22965212 -0.077340275 -0.008815122 0.18722086 -0.08574296 -0.14908293 0.12819307 -0.007811373 -0.119943134 -0.22903109 -0.013231935 0.080056295 0.1974072 0.060189348 0.118801504 0.1765977 0.068998285 0.062159333 0.33972505 -0.11775741 -0.18437949 0.16949466 0.0050608385 -0.010356387 0.09416505 -0.055072747 0.15906966 -0.04162839 -0.008813208 0.08835347 0.0028103732 -0.18124846 0.13345031 -0.08280148 -0.25926158 -0.15815802 0.024625532 -0.18595286 -0.05604501 -0.034730714 -0.1210558 0.26843786 -0.09640294 -0.2550571 0.11351446 0.37753993 0.05572367 0.16224307 0.2923547 -0.18212995 0.13911445 0.2659885 -0.19725963 -0.21015304 0.014189303 -0.0116643375 0.18066137 0.038510807 -0.30069172 -0.30707026 -0.027881015 -0.18310472 -0.3194228 0.06922037 0.06116411 0.06284409 0.049829483 -0.053613074 0.057543423 -0.07891624 0.039691973 -0.30618224 0.13453011 -0.08257132 0.08925988 0.21366914 -0.1785712 -0.034310296 -0.053246547 0.19266741 0.119166374 0.099925965 -0.21408093 -0.1729419 -0.073558725 0.16628592 -0.0862863 -0.16474804 -0.14224033 0.03337669
12t 0.09204445 -0.17065345 0.14407046 -0.00020105192 0.07018549 -0.32855958 0.07406273 0.07277313 -0.0010900883 0.062374108 0.30254257 -0.15592603 -0.09103507 -0.24203515 0.19825885 0.03087718 -0.074364506 0.0702079 -0.111860245 0.14061043 0.1867308 0.21161717 0.06650768 -0.20982988 -0.18712671 0.0797759 -0.18306397 0.10069315 0.117130816 -0.080642425 -0.2649593 0.07141432 -0.007489668 0.13466947 -0.16168879 0.12941612 0.36912957 -0.004592542 0.24255753 -0.061648794 -0.014033377 0.17033271 -0.09473695 -0.16665499 0.103489384 -0.015693275 -0.124044165 -0.21553479 -0.024029454 0.0818311 0.19409348 0.04696063 0.13330656 0.17459896 0.056651607 0.056532163 0.32496417 -0.13864534 -0.19329447 0.16998847 0.0019870999 0.013176891 0.09044979 -0.023770068 0.144672 -0.0552324 0.016012158 0.094397135 -0.0031740847 -0.16350548 0.12289658 -0.05426733 -0.2428588 -0.14481603 0.020871744 -0.18370679 -0.06174014 -0.026584974 -0.11838454 0.27483138 -0.10178429 -0.23887429 0.109486684 0.3493468 0.054404035 0.16113411 0.29128096 -0.16897026 0.1351822 0.258339 -0.15932402 -0.2248923 0.025926543 -0.014112066 0.17340179 0.029146478 -0.29289645 -0.31866178 -0.0073213563 -0.17268795 -0.28689393 0.059807904 0.048256733 0.056110837 0.07054881 -0.062553346 0.047499664 -0.07229291 0.06774359 -0.29347488 0.12838526 -0.08203757 0.10000737 0.21207893 -0.1559918 -0.03323981 -0.051840104 0.18922241 0.12334884 0.101696804 -0.20226029 -0.16329296 -0.067031026 0.16578908 -0.067488395 -0.15407616 -0.12407129 0.028616766
pro black 0.08280973 -0.15979953 0.14430466 -0.0029481442 0.06701138 -0.3200657 0.08593326 0.07325616 -0.004108332 0.054507732 0.30748844 -0.15411668 -0.086090416 -0.2373995 0.20694512 0.029984508 -0.08037312 0.05476907 -0.11642954 0.12658629 0.1735344 0.21304883 0.052247547 -0.22052096 -0.19250368 0.07941292 -0.17386597 0.108043104 0.1160907 -0.070031434 -0.26536933 0.0704536 -0.018838018 0.12659523 -0.16029905 0.13229439 0.3642139 0.0047846525 0.23685955 -0.07445622 -0.007407725 0.16531698 -0.087837495 -0.15750308 0.107000716 -0.017232927 -0.123784736 -0.22451366 -0.010901528 0.074559614 0.20519188 0.04326355 0.12724142 0.16464855 0.06706314 0.045497466 0.33480355 -0.13569477 -0.19310787 0.16031092 -0.0056235758 0.00081870914 0.082323395 -0.035233047 0.14421847 -0.04790126 0.009720455 0.09785975 -0.015329877 -0.16796169 0.12839031 -0.052425396 -0.2507378 -0.13905606 0.028270323 -0.17916395 -0.046319805 -0.040734462 -0.10670151 0.26923096 -0.09140281 -0.2412491 0.1070745 0.35325634 0.048813246 0.15837839 0.2920657 -0.16367167 0.14197864 0.24545741 -0.15778387 -0.21568798 0.032963052 -0.011511861 0.17123291 0.033982567 -0.29729426 -0.31660444 -0.017259344 -0.17263989 -0.2847941 0.06323861 0.056682814 0.06656943 0.07798216 -0.064996466 0.054215506 -0.08299381 0.06443438 -0.28590482 0.14188223 -0.07251921 0.09827762 0.2140679 -0.14524692 -0.017015653 -0.055719424 0.19394782 0.12541425 0.09752891 -0.1907944 -0.14966878 -0.05370284 0.16640815 -0.06383335 -0.1571308 -0.118543364 0.026820455
12t pro 0.08914985 -0.17036894 0.16090584 -0.0032701285 0.06397148 -0.32992965 0.08471577 0.059928693 0.0011292811 0.048481524 0.30777594 -0.14789958 -0.09236368 -0.24212399 0.2082382 0.043193847 -0.0895113 0.056879994 -0.11399315 0.13581204 0.18448843 0.22673765 0.064054094 -0.22231705 -0.19233596 0.091945395 -0.1759307 0.11046027 0.11423792 -0.08269024 -0.2698393 0.060724445 -0.007600714 0.13073738 -0.16288191 0.13765088 0.37698552 -0.0033257117 0.24676116 -0.070828535 -0.018321771 0.17378831 -0.09691861 -0.16610481 0.1168819 -0.007986291 -0.11750164 -0.22985364 -0.023617342 0.073335394 0.20857723 0.05942137 0.12536955 0.17018974 0.058050454 0.055623233 0.34169343 -0.13262136 -0.19430803 0.16016294 -0.005994363 0.0019437127 0.090312675 -0.022845617 0.14320786 -0.046320435 0.017927922 0.09961654 -0.0100348685 -0.16106962 0.13255379 -0.05690056 -0.25263205 -0.1393597 0.028056836 -0.17218772 -0.059253518 -0.033071965 -0.109156966 0.26576245 -0.08813458 -0.23984294 0.12015416 0.3634168 0.046503313 0.16159154 0.28622195 -0.17962967 0.13282011 0.25385597 -0.17253841 -0.21687756 0.0362919 -0.014540343 0.17653352 0.03412409 -0.30021355 -0.32011223 -0.0050378446 -0.18379642 -0.29307345 0.069469154 0.059658088 0.0687312 0.074627705 -0.058857966 0.055892788 -0.076235324 0.06557285 -0.29856825 0.13945939 -0.07518552 0.086086854 0.2149083 -0.14690012 -0.028322957 -0.050200224 0.18564221 0.123994775 0.102168605 -0.19571254 -0.15634534 -0.0583959 0.17025733 -0.06860606 -0.16679765 -0.13271616 0.02277934
5g 0.07377697 -0.17356806 0.17512743 -0.03932429 0.03768005 -0.334307 0.064129815 0.03728574 -0.030056303 0.059643004 0.31535178 -0.17146957 -0.14079778 -0.21791764 0.21179575 0.051097706 -0.09789181 0.04715641 -0.099457644 0.16349514 0.20704843 0.2577357 0.07037396 -0.23284957 -0.21837926 0.1109964 -0.21899487 0.101682164 0.080568716 -0.05767117 -0.29655442 0.060748484 -0.042933095 0.14515291 -0.12399869 0.11980104 0.39599574 0.023734042 0.24170753 -0.06863844 -0.017650185 0.19161539 -0.0881714 -0.14717747 0.13088024 0.020074485 -0.1262181 -0.22522312 -0.0435506 0.06394953 0.20208043 0.05365996 0.13102698 0.17710477 0.05257415 0.06522309 0.33785096 -0.10151797 -0.18345201 0.17100959 -0.00058049825 -0.026220273 0.11290608 -0.05298334 0.1654719 -0.042404924 -0.030821085 0.08794311 -0.009468714 -0.21851031 0.13011333 -0.11607769 -0.2724637 -0.17575288 0.01114614 -0.18609965 -0.08356873 -0.046082284 -0.14457078 0.25673637 -0.0820053 -0.24889615 0.10721755 0.4086423 0.042180404 0.15629613 0.29900116 -0.1693548 0.1500764 0.25594273 -0.20567033 -0.23358819 0.020789418 -0.017860388 0.19838789 0.028137451 -0.3090039 -0.29668188 -0.03597787 -0.20797537 -0.33044577 0.057736836 0.0855884 0.101748474 0.054430824 -0.059907142 0.07759433 -0.076926135 0.035111345 -0.3509916 0.11580969 -0.108629785 0.10172606 0.1870127 -0.17590962 -0.0067761196 -0.024840202 0.21738991 0.13003893 0.08412983 -0.21770777 -0.15822206 -0.096211046 0.20429331 -0.11137891 -0.19284257 -0.14641303 0.016180106
5g 128gb 0.07912592 -0.1714187 0.18790336 -0.043277796 0.04554988 -0.34246257 0.06289534 0.05149186 -0.03149858 0.049702637 0.31146026 -0.17107026 -0.14655758 -0.21075621 0.2265085 0.037225243 -0.09946529 0.05745415 -0.099684 0.16499756 0.21221754 0.24485907 0.072028 -0.24071962 -0.2242814 0.10988144 -0.212559 0.11737006 0.079589516 -0.055255655 -0.29419878 0.06253597 -0.041989494 0.15159394 -0.1296703 0.109181486 0.38693646 0.029741773 0.23945743 -0.06938561 -0.021579213 0.20617265 -0.09289335 -0.14196992 0.13132487 0.0216916 -0.11322929 -0.22553039 -0.037722733 0.06521685 0.19859175 0.048629545 0.12909025 0.18709154 0.06359628 0.0726044 0.32916594 -0.09902438 -0.18631753 0.1730048 0.004233053 -0.019973224 0.11497433 -0.05160026 0.16722344 -0.04071304 -0.035782445 0.0883189 -0.00270782 -0.21865226 0.12715298 -0.11467995 -0.26839462 -0.1902608 0.017457332 -0.17865323 -0.07465671 -0.04563504 -0.1552583 0.25130364 -0.07881153 -0.24811877 0.1161234 0.39648047 0.04807729 0.1471131 0.30280313 -0.17733942 0.14148816 0.24782036 -0.21032615 -0.24119633 0.012177858 -0.02229335 0.19865513 0.031125538 -0.3101367 -0.30508476 -0.031288836 -0.21179053 -0.33779523 0.052327756 0.098480545 0.09939613 0.04960642 -0.05319425 0.07028112 -0.08231616 0.04176353 -0.3507004 0.10963113 -0.105600394 0.099178344 0.1897651 -0.17800641 -0.001299391 -0.026933005 0.20992635 0.13812621 0.087115064 -0.22365896 -0.15354759 -0.08918866 0.20302728 -0.1109459 -0.18974248 -0.14189033 0.015300936
blue 0.07499292 -0.1715327 0.18079008 -0.01990126 0.05317598 -0.3425348 0.07343552 0.05348735 -0.044528037 0.039574526 0.32217443 -0.17240784 -0.15089633 -0.2171127 0.24315137 0.05040577 -0.108113214 0.051111046 -0.1054352 0.15976986 0.19838507 0.26594678 0.061759427 -0.23683886 -0.21217571 0.11103461 -0.20861982 0.12318379 0.0860233 -0.079612985 -0.27694598 0.046306446 -0.024999082 0.13748458 -0.15155518 0.100515515 0.40311342 0.018462462 0.24776952 -0.05754825 -0.019922024 0.190073 -0.07048194 -0.15278202 0.13298008 0.024081105 -0.121028975 -0.21764487 -0.027633669 0.075625084 0.18372811 0.06648144 0.14187606 0.18275943 0.051248427 0.070016816 0.34365976 -0.12105548 -0.17903253 0.17110944 0.028957274 -0.041734647 0.10468658 -0.03034639 0.17178912 -0.033280417 -0.026561385 0.094667874 -0.015884656 -0.21979645 0.13941695 -0.12631072 -0.2700383 -0.19150448 0.029068455 -0.19037063 -0.086157694 -0.03510759 -0.14426127 0.26822755 -0.09627059 -0.2562525 0.10909571 0.3912599 0.024032105 0.14846073 0.2981066 -0.15679623 0.16217507 0.27599546 -0.22446981 -0.23751827 0.013261391 -0.016151417 0.19221172 0.02607312 -0.30065677 -0.29253536 -0.037145965 -0.20558845 -0.33097067 0.06513058 0.07186168 0.079317264 0.040453218 -0.040834397 0.081197105 -0.076132536 0.045117427 -0.34237793 0.14026816 -0.08790544 0.10788453 0.18913583 -0.16681151 -0.019146753 -0.05194268 0.20227878 0.14606304 0.061374586 -0.23901813 -0.16887392 -0.093961574 0.20465367 -0.11133294 -0.19329554 -0.14288001 0.017028015
lite 0.040964607 -0.14112842 0.14532413 -0.033539806 0.06362983 -0.33761606 0.070948236 0.06312208 -0.032927673 0.046638586 0.33718804 -0.1249814 -0.08087457 -0.22054471 0.22438231 0.03556468 -0.051129937 0.059922133 -0.07550019 0.13092425 0.17577724 0.24810734 0.05488232 -0.19500771 -0.14574745 0.097986676 -0.16098088 0.12455897 0.06727959 -0.0762623 -0.24698892 0.027957583 0.009594609 0.13709123 -0.16202183 0.09712606 0.36202607 0.030677455 0.22473752 -0.08902835 -0.002597877 0.15189508 -0.08135128 -0.1363194 0.104561076 0.026482299 -0.09034701 -0.18997124 0.0037827375 0.077714644 0.15803826 0.08365578 0.12677813 0.18458226 0.083323486 0.044808406 0.3104979 -0.106772885 -0.17163204 0.17232336 0.021368198 -0.010746182 0.10039771 -0.079609856 0.17206131 -0.035496507 -0.0027440612 0.091896005 -0.014458117 -0.17826249 0.13684139 -0.100893706 -0.21676229 -0.15654564 0.0011335682 -0.15202685 -0.05807904 -0.041108016 -0.13466673 0.24577774 -0.081747726 -0.2206618 0.05966183 0.38570306 0.03323383 0.18176429 0.2626416 -0.18726386 0.10284213 0.22721389 -0.2096101 -0.19212192 0.033392437 -0.0068168496 0.16176258 0.039147764 -0.28338256 -0.2684109 -0.009524885 -0.18439448 -0.33141157 0.025242604 0.10054074 0.08627989 0.032807186 -0.07146161 0.06949199 -0.063625224 0.034525897 -0.30328605 0.11930665 -0.07346702 0.07381855 0.18838675 -0.17348997 -0.0380266 -0.06124046 0.18172468 0.08130786 0.072887756 -0.2393709 -0.1617616 -0.046521343 0.1256194 -0.10061232 -0.18796273 -0.12338261 0.04591738
12 lite 0.05014104 -0.13444228 0.15649453 -0.03756955 0.07079729 -0.34490812 0.08344162 0.0659611 -0.036606602 0.040904447 0.33856127 -0.13409224 -0.08164885 -0.22023952 0.2234734 0.036817756 -0.05034084 0.05686668 -0.074019276 0.14591245 0.18614352 0.24507228 0.062556244 -0.1930833 -0.14522345 0.10677767 -0.16482615 0.13146414 0.082224436 -0.072210036 -0.2466976 0.035272617 0.0018562088 0.13554335 -0.16310641 0.08166766 0.3559193 0.032363903 0.2171927 -0.08598154 0.00014929092 0.1607396 -0.07679206 -0.13494459 0.10708377 0.031113833 -0.093066566 -0.19214433 0.0053779157 0.07377156 0.16050647 0.08286497 0.12783799 0.17980526 0.07541422 0.0514199 0.320735 -0.10258406 -0.17204711 0.15683995 0.02214939 -0.013792407 0.100441314 -0.08082268 0.17580776 -0.050605725 0.004861591 0.08233234 -0.0010549383 -0.16858168 0.13197434 -0.102495365 -0.2244673 -0.15792675 -0.004401794 -0.15058784 -0.05368808 -0.036584232 -0.14339074 0.25040826 -0.080277026 -0.22087848 0.05879923 0.38350886 0.04430315 0.18331212 0.25491408 -0.18905672 0.103612535 0.23359866 -0.21157762 -0.20814157 0.02401053 -0.008801622 0.15509774 0.0266447 -0.27914727 -0.26361123 -0.010644975 -0.18147612 -0.32951513 0.025479322 0.09201429 0.08905486 0.04285295 -0.06640856 0.069269076 -0.073939204 0.036852326 -0.311175 0.12839922 -0.07993849 0.0698319 0.1740235 -0.16600071 -0.038749933 -0.056695517 0.18062255 0.08787428 0.06593721 -0.24191307 -0.15797624 -0.05092629 0.13052893 -0.10865056 -0.18566814 -0.13986282 0.036419928
graphite 0.07847116 -0.18055215 0.18656477 -0.028863866 0.07002295 -0.33126578 0.08339966 0.03829785 -0.04014359 0.027660381 0.31238654 -0.16848491 -0.15019605 -0.21568021 0.2240396 0.046191756 -0.09292498 0.06623453 -0.10751714 0.18601082 0.2260458 0.266439 0.0656682 -0.24554701 -0.2281198 0.11940665 -0.21375677 0.11355603 0.07953098 -0.06529057 -0.29846147 0.06483459 -0.024457611 0.15390979 -0.1338572 0.10834492 0.3763684 0.021718089 0.2170352 -0.06483925 -0.028719421 0.19258784 -0.08743272 -0.1456744 0.13467203 0.013466626 -0.1097724 -0.23621453 -0.04939048 0.07730937 0.20160393 0.06924293 0.1423953 0.19324651 0.04612965 0.05260581 0.3583981 -0.11920332 -0.18704522 0.15435943 0.023575922 -0.035575636 0.1264491 -0.064424194 0.14474182 -0.04894595 -0.029045852 0.11188333 -0.021627482 -0.19599776 0.13483582 -0.11061935 -0.2661137 -0.17073183 0.018411651 -0.17224886 -0.08841152 -0.05089945 -0.16175196 0.25435817 -0.07945417 -0.26072866 0.11134276 0.40954456 0.048326116 0.14544848 0.3096293 -0.18213788 0.15877552 0.27335373 -0.20645384 -0.23949179 0.010020219 -0.019490082 0.19975808 0.04594475 -0.30612314 -0.30047795 -0.04082279 -0.223361 -0.32695562 0.042491812 0.08420934 0.084050745 0.043518856 -0.05271137 0.0741732 -0.06556843 0.040329188 -0.34375465 0.1241523 -0.10301031 0.1011365 0.1920206 -0.17739607 -0.021005768 -0.026390664 0.20699517 0.13537781 0.085272744 -0.22217661 -0.14916536 -0.084595196 0.19543083 -0.1025794 -0.1999287 -0.15744066 0.048015773
128gb graphite 0.07254511 -0.16864412 0.18383825 -0.044841617 0.059037987 -0.33716616 0.06824441 0.03976031 -0.030692438 0.042369023 0.3213853 -0.15130123 -0.13948485 -0.20407236 0.21691129 0.048956305 -0.07780599 0.05731132 -0.09946979 0.16638972 0.21675657 0.25377277 0.069561645 -0.2496334 -0.21702375 0.1154624 -0.2207678 0.09534636 0.08784024 -0.07233588 -0.28876403 0.069528006 -0.036016732 0.16145204 -0.12905277 0.11619644 0.37563303 0.012482568 0.21572822 -0.06475097 -0.022284418 0.19110234 -0.07480634 -0.15577361 0.1193191 0.0030909018 -0.119161494 -0.2354345 -0.04083077 0.07535427 0.20553444 0.057682965 0.12287512 0.18789698 0.048120677 0.052206535 0.33496708 -0.108896054 -0.19175744 0.16017827 0.013555842 -0.028235668 0.11332944 -0.06464052 0.15762983 -0.047573686 -0.01373548 0.10617468 -0.008683286 -0.20105958 0.12811461 -0.105627134 -0.26584482 -0.18167372 0.022897542 -0.1724126 -0.08188359 -0.055825006 -0.16211388 0.24872386 -0.08325201 -0.25054312 0.1106897 0.40174377 0.045986053 0.13910422 0.28802845 -0.17949322 0.13723634 0.2622942 -0.20353444 -0.2392397 0.0060173236 -0.023211539 0.19932172 0.037989043 -0.29236037 -0.3000391 -0.03255423 -0.21046501 -0.31405187 0.048542928 0.08359788 0.08332301 0.05567714 -0.058694456 0.07512208 -0.06117085 0.050379716 -0.33504498 0.11305479 -0.09687109 0.10547134 0.18741925 -0.17877063 -0.00906462 -0.039382007 0.20484386 0.14232586 0.07760681 -0.214712 -0.1470861 -0.08503433 0.18625204 -0.09222308 -0.18185063 -0.1533805 0.041573286
11 128gb 0.078101374 -0.16624472 0.17480938 -0.037994888 0.07302004 -0.32737806 0.07831843 0.054496177 -0.026190616 0.022551887 0.30957544 -0.15597281 -0.14410953 -0.20349054 0.22275963 0.050192397 -0.081665024 0.045366194 -0.110227816 0.166991 0.20710519 0.25045204 0.053831544 -0.24335726 -0.22252408 0.118371636 -0.20575513 0.09130593 0.08479579 -0.061939076 -0.27852356 0.049950108 -0.028001994 0.15853862 -0.14487062 0.105082355 0.36718154 0.02125049 0.22884504 -0.06372192 -0.018831614 0.18346174 -0.083192796 -0.13922738 0.12424613 0.0016585526 -0.10900338 -0.22215264 -0.0460703 0.054275386 0.18044467 0.06071769 0.13336729 0.19604631 0.05764309 0.0539469 0.34539336 -0.10739375 -0.18026188 0.14239094 0.020685488 -0.039175358 0.10858693 -0.049470216 0.15409009 -0.039949596 -0.019833324 0.109864324 -0.028906928 -0.20781144 0.13551489 -0.11668387 -0.26148307 -0.17402634 0.01661079 -0.16504453 -0.08363963 -0.055985283 -0.15473762 0.2338415 -0.089669526 -0.25295407 0.11468198 0.38761944 0.03238999 0.13465455 0.28300434 -0.1666095 0.15093789 0.27122593 -0.2127077 -0.22666977 -0.012662807 -0.023064932 0.19129972 0.026729401 -0.28588945 -0.27111953 -0.020939015 -0.21375038 -0.30775633 0.042535618 0.06727663 0.06646026 0.04695453 -0.046255264 0.06629739 -0.06960768 0.05329289 -0.32393044 0.12502034 -0.07639078 0.094529845 0.18182735 -0.16887695 -0.008632183 -0.05213741 0.1848423 0.14114685 0.07471213 -0.2167937 -0.1561262 -0.07220423 0.19087085 -0.10634796 -0.18768707 -0.13121119 0.043753535
11 pro 0.07722693 -0.1725958 0.16747802 -0.02807656 0.047466327 -0.34224162 0.07015113 0.052559048 -0.045616765 0.057638578 0.3118128 -0.16770788 -0.13374054 -0.21416874 0.23057261 0.046947867 -0.09629232 0.047289815 -0.097728476 0.17970426 0.20882536 0.2434254 0.07052684 -0.23607244 -0.22317106 0.109755374 -0.21295385 0.11796781 0.072297834 -0.074197955 -0.28641382 0.0525542 -0.028080571 0.14942622 -0.13709912 0.113796964 0.3823607 0.012903782 0.22764903 -0.06552121 -0.015891103 0.2060077 -0.09209652 -0.14277287 0.13014737 0.015928788 -0.11401438 -0.21317393 -0.033049665 0.07717705 0.20742044 0.05893899 0.13448969 0.17850158 0.048522174 0.06262932 0.33812162 -0.11295374 -0.1812351 0.18566597 -0.0016177666 -0.026432056 0.11416961 -0.040883183 0.16418357 -0.033196546 -0.025078563 0.08664088 -0.005068988 -0.21777491 0.12954254 -0.12438602 -0.25723502 -0.19191298 0.03127374 -0.18106073 -0.07083149 -0.06042887 -0.15238476 0.26076725 -0.09137913 -0.25016838 0.103474766 0.39735326 0.026460225 0.1483149 0.29933771 -0.16562659 0.15430768 0.25360054 -0.20801592 -0.23975194 0.030831993 -0.018122062 0.18393517 0.042766593 -0.30715057 -0.30838227 -0.027400164 -0.20099305 -0.33813646 0.051921833 0.09383971 0.0872406 0.05386824 -0.051111676 0.07540642 -0.06856245 0.0447117 -0.33516568 0.113761 -0.09717595 0.10936663 0.18313837 -0.17912763 -0.005555276 -0.027189514 0.20552185 0.1484159 0.081028074 -0.23024672 -0.16377783 -0.09519873 0.20308481 -0.10718276 -0.19725819 -0.15090103 0.015059906
pro 5g 0.08176967 -0.17342043 0.18230706 -0.035854165 0.04764342 -0.3336583 0.07206989 0.04748492 -0.045275737 0.049734265 0.31258368 -0.15843295 -0.1479908 -0.22474207 0.22747287 0.046927933 -0.09079053 0.050347976 -0.10119098 0.17355202 0.2144906 0.24596481 0.081549905 -0.23390834 -0.22314577 0.10553026 -0.22212033 0.10610108 0.07776062 -0.07893459 -0.27352858 0.05997228 -0.030670183 0.14151414 -0.1460704 0.10487361 0.39719456 0.011971812 0.23820467 -0.070558205 -0.004377528 0.2023447 -0.08856764 -0.15290602 0.12888609 0.011751188 -0.108866885 -0.2187524 -0.034918845 0.073013455 0.20809627 0.049947843 0.13796419 0.18605791 0.048709657 0.06816671 0.33697057 -0.107166216 -0.18577655 0.18409659 0.0051970384 -0.029925846 0.10617907 -0.0361353 0.16234896 -0.043159973 -0.021839995 0.090834916 -0.0063093277 -0.21737704 0.13840726 -0.11481178 -0.2507854 -0.18166064 0.020251762 -0.17401959 -0.07846848 -0.06083278 -0.14148705 0.26830044 -0.081550755 -0.2546796 0.099794604 0.40330768 0.026185444 0.16258405 0.29626858 -0.16326262 0.1536736 0.26182947 -0.21322766 -0.23197366 0.03222579 -0.028634429 0.18767352 0.033590086 -0.29890007 -0.29649192 -0.03248205 -0.19939989 -0.33484605 0.061589494 0.09182036 0.08846013 0.04961778 -0.05485676 0.08479843 -0.062165853 0.04855885 -0.34731156 0.11745271 -0.103011094 0.10114095 0.19080037 -0.17678621 -0.01856973 -0.027596723 0.21566522 0.14944209 0.0824438 -0.23433058 -0.1693554 -0.090731 0.18848191 -0.114573896 -0.18864287 -0.15283616 0.009876393
a1 black 0.07683822 -0.179163 0.15921716 -0.039832577 0.06507824 -0.3330747 0.06802691 0.06447329 -0.027644811 0.055905342 0.3535088 -0.12938009 -0.139068 -0.20428602 0.2152865 0.05772335 -0.0980349 0.047959052 -0.09253141 0.15557146 0.19165947 0.22140077 0.04579754 -0.23028566 -0.20509529 0.08570051 -0.21637842 0.135515 0.08129671 -0.04657105 -0.25718325 0.05106151 0.017934676 0.13071226 -0.118014656 0.089756 0.35610068 -0.011244267 0.23661189 -0.054233614 -0.024974205 0.16449484 -0.105241165 -0.17064366 0.122839384 -0.01549523 -0.09054209 -0.22041345 -0.033985205 0.07873805 0.19201374 0.049959168 0.12193468 0.18649907 0.08298324 0.050897058 0.33152437 -0.10799666 -0.19516155 0.19926657 -0.004399245 -0.019712118 0.10563542 -0.02281986 0.14422858 -0.027157374 0.0004773399 0.123259485 -0.035551764 -0.18251877 0.13230933 -0.09582765 -0.22928654 -0.17799228 0.0309038 -0.19755538 -0.0765052 -0.0631244 -0.13501938 0.23053595 -0.07482065 -0.26118907 0.091784604 0.4006855 0.0548565 0.17258005 0.27243412 -0.16967294 0.12857394 0.26635522 -0.2116398 -0.20962933 0.03487926 -0.0047428356 0.18676165 0.031451188 -0.28217658 -0.30019093 0.011689127 -0.20366837 -0.32780567 0.05291124 0.05580517 0.06622349 0.019731252 -0.043982882 0.08001208 -0.0516612 0.041712936 -0.3494694 0.12504345 -0.07564856 0.07703998 0.2095193 -0.15155344 -0.026306065 -0.03444481 0.19220254 0.1169923 0.09467907 -0.22452815 -0.16679358 -0.064349584 0.19052869 -0.09815753 -0.1721096 -0.12335744 0.014987628
99pm 0.070487864 -0.16371979 0.18048713 -0.044705182 0.058535665 -0.35610127 0.074945465 0.062458213 -0.0374398 0.052925304 0.34242648 -0.15991113 -0.1396745 -0.22411564 0.21809366 0.053929023 -0.07622954 0.064442955 -0.11224737 0.17520674 0.19793916 0.24425417 0.057709772 -0.2228066 -0.220042 0.086623825 -0.209035 0.12527399 0.069341704 -0.07160661 -0.27640948 0.050631907 -0.020983035 0.14113262 -0.1481834 0.12288828 0.38609454 0.011007923 0.23568065 -0.07078307 -0.018748693 0.18205851 -0.07754096 -0.16370131 0.10933229 0.0035529528 -0.09403707 -0.23497884 -0.034512937 0.07250035 0.20935741 0.056162745 0.14357263 0.1757017 0.069628716 0.045557644 0.36051682 -0.12146815 -0.19017889 0.17620161 0.01888063 -0.00965564 0.09402093 -0.06165928 0.16248845 -0.044364396 -0.029672699 0.10606718 -0.033246443 -0.20763859 0.15257779 -0.110579476 -0.2632279 -0.18080348 0.020019531 -0.1972211 -0.07899651 -0.064123996 -0.15621632 0.27095753 -0.07506725 -0.26081815 0.11348426 0.39605567 0.05132561 0.18106516 0.29248017 -0.18884698 0.14169542 0.27025217 -0.21395813 -0.22769098 0.038868245 -0.0029459312 0.18891661 0.044680465 -0.3093283 -0.31383803 -0.012361397 -0.21864696 -0.33579934 0.052499548 0.067405485 0.08295215 0.05025664 -0.057677623 0.0661796 -0.0605115 0.04123666 -0.35352603 0.13005053 -0.08531998 0.109365664 0.2044436 -0.1529668 -0.04266466 -0.03528417 0.20721704 0.12487253 0.07558377 -0.22367804 -0.16806191 -0.0901115 0.17901498 -0.10011325 -0.18665488 -0.13088599 0.028366692
a1 0.077397324 -0.17138407 0.17403322 -0.04671858 0.0682182 -0.3361233 0.0734051 0.059076145 -0.03980048 0.07042996 0.346118 -0.13742274 -0.13803118 -0.20250437 0.22375317 0.05207255 -0.08947187 0.054183282 -0.09394673 0.17416991 0.1992456 0.22336158 0.033655033 -0.21975952 -0.21483584 0.08849947 -0.22168587 0.13682613 0.08777522 -0.0540419 -0.25806978 0.064744085 0.010485522 0.14324884 -0.123106636 0.09492716 0.37103972 -0.0068970737 0.232787 -0.046514332 -0.032480862 0.17373647 -0.103028595 -0.16102698 0.12202268 -0.01165648 -0.09031029 -0.22154956 -0.042162303 0.070773214 0.1961102 0.053172767 0.12123773 0.17720366 0.08029964 0.061625417 0.33214906 -0.111905225 -0.19484513 0.19531046 -0.0034701864 -0.021147782 0.1081562 -0.023272445 0.15631174 -0.02617983 -0.0014461282 0.10991403 -0.02704425 -0.19465987 0.13405007 -0.08960565 -0.24502893 -0.17678173 0.038526297 -0.19370073 -0.07378033 -0.06944951 -0.1277915 0.23243423 -0.087753005 -0.26436707 0.09527424 0.39655173 0.03755019 0.1723902 0.2730145 -0.17401378 0.1367181 0.26582783 -0.20757778 -0.21451147 0.03974569 -0.0035664714 0.19205567 0.036741108 -0.30463034 -0.3140845 0.009164 -0.20048618 -0.33714226 0.060153235 0.056954198 0.061896943 0.015805265 -0.034152225 0.07622024 -0.06605563 0.04412988 -0.33995682 0.12642011 -0.08778355 0.08683924 0.20161879 -0.15909587 -0.03276847 -0.029397646 0.20103672 0.11197356 0.09077859 -0.21693668 -0.17438897 -0.07306077 0.19623448 -0.11420151 -0.16985603 -0.1393852 0.029200712
graphite grey 0.06944345 -0.18123378 0.17807274 -0.029354759 0.0692973 -0.3250229 0.07698672 0.048556384 -0.025862463 0.03140173 0.31014425 -0.15892482 -0.13596238 -0.2049164 0.21437003 0.03979392 -0.0797112 0.070640706 -0.11040754 0.1768491 0.20680343 0.26416445 0.068210885 -0.24591751 -0.21365735 0.11961577 -0.20891756 0.0964671 0.0841874 -0.06782805 -0.28536597 0.06783231 -0.025865754 0.16308716 -0.13367127 0.11246327 0.37538695 0.005182359 0.20751655 -0.063234255 -0.03016136 0.19156973 -0.07547431 -0.15689488 0.12257028 0.0017751552 -0.12063476 -0.23028104 -0.032363445 0.061066806 0.19672583 0.06887505 0.14608558 0.19784804 0.048132863 0.05674413 0.343208 -0.10880588 -0.17958875 0.15512305 0.023448661 -0.04006044 0.11703705 -0.050763555 0.15232947 -0.035552584 -0.023552978 0.11175867 -0.031130087 -0.2029065 0.13273248 -0.118588984 -0.2656895 -0.16896357 0.026766866 -0.18136998 -0.08045909 -0.056580734 -0.16370656 0.24363096 -0.08008421 -0.26107112 0.10915242 0.40910393 0.04605453 0.14678597 0.30553037 -0.17264189 0.14868712 0.2788642 -0.19970943 -0.23112932 0.011660581 -0.019312274 0.20929992 0.04399454 -0.30274197 -0.29581782 -0.029451786 -0.21775581 -0.31664404 0.037002865 0.08073786 0.08734099 0.051490348 -0.049365044 0.06066309 -0.05787397 0.051520053 -0.33715412 0.13586079 -0.091956176 0.10219319 0.19776662 -0.17170233 -0.01671974 -0.032694362 0.19101642 0.13206966 0.07279255 -0.22285153 -0.15555425 -0.0686327 0.1875602 -0.09908338 -0.19269548 -0.14729439 0.039810237
redmi a1 0.06964959 -0.1787095 0.1682361 -0.036271784 0.067523964 -0.32969093 0.07322095 0.056636166 -0.039550725 0.06769626 0.35455868 -0.14409481 -0.1302584 -0.20024605 0.21230099 0.049946886 -0.10321207 0.0568234 -0.103292786 0.16824916 0.20747225 0.2196743 0.034595557 -0.22793145 -0.22099051 0.07973853 -0.22923309 0.13019827 0.08208277 -0.053998005 -0.26265708 0.0664814 0.014738117 0.13282374 -0.11707823 0.08931065 0.36722112 -0.004015872 0.23635617 -0.05776987 -0.025558846 0.17793378 -0.10963421 -0.17131023 0.110330336 -0.005990485 -0.09712405 -0.23054588 -0.030390386 0.073412456 0.20097739 0.061709903 0.119266 0.18662976 0.06855604 0.0526647 0.32973313 -0.113990285 -0.20100781 0.20268618 0.0043693036 -0.027701769 0.10911657 -0.021958323 0.14552118 -0.02539771 -0.011059671 0.12482865 -0.022549026 -0.19281346 0.12161482 -0.0959134 -0.24343592 -0.1762078 0.040766567 -0.19827248 -0.0823402 -0.06958673 -0.13610776 0.24121784 -0.08347362 -0.26200843 0.10799244 0.39972034 0.050388392 0.17486964 0.27225307 -0.17508647 0.12589228 0.2596509 -0.21165584 -0.209533 0.030772803 0.0028170017 0.18632372 0.025226194 -0.2943245 -0.30604982 0.0025341331 -0.20529032 -0.34069714 0.060498316 0.052762948 0.05978884 0.01744204 -0.03303798 0.08090207 -0.0546262 0.057792913 -0.35251346 0.13236462 -0.07947979 0.09425072 0.20196006 -0.14865524 -0.03361921 -0.0289389 0.20513605 0.1176773 0.094527826 -0.21539226 -0.16703942 -0.06166556 0.19382983 -0.10612298 -0.16499242 -0.12795998 0.020285368
idmobile 0.07337592 -0.1708756 0.17724542 -0.040242504 0.05546065 -0.3430679 0.07875711 0.05012723 -0.022891922 0.045047652 0.33684185 -0.1530961 -0.12504572 -0.22224967 0.21435036 0.05255589 -0.08719814 0.06593856 -0.11350099 0.17325634 0.20162903 0.24117771 0.05947981 -0.23279329 -0.2173034 0.08582114 -0.20707361 0.123184174 0.07075475 -0.057189424 -0.268579 0.050923377 -0.0147698205 0.14754854 -0.14732999 0.11747513 0.3848853 0.014357427 0.23606859 -0.062289894 -0.0232334 0.17460145 -0.0750775 -0.16626932 0.11427211 -0.00092354853 -0.09864017 -0.2346248 -0.028263278 0.07388187 0.19810188 0.049309116 0.12556157 0.18317178 0.052268278 0.0572245 0.34549734 -0.1304431 -0.19441536 0.18316315 0.010194749 -0.008605644 0.0922687 -0.059418358 0.15014927 -0.0387472 -0.027138764 0.09567567 -0.034783553 -0.19958721 0.14705855 -0.11339459 -0.2640862 -0.17309114 0.02655215 -0.19732721 -0.06712913 -0.06530327 -0.14319621 0.26425046 -0.07535122 -0.24978767 0.11753878 0.39873186 0.039369524 0.17459081 0.28237435 -0.18522722 0.14677303 0.25737533 -0.21301925 -0.230966 0.030255413 -0.0040924083 0.19205073 0.043405466 -0.30614683 -0.3017519 -0.023069981 -0.20887463 -0.3365668 0.05456802 0.07628787 0.08557353 0.040554557 -0.049824916 0.07751125 -0.06941781 0.041639127 -0.34388027 0.124348864 -0.07769845 0.108031936 0.20885609 -0.14953269 -0.037355527 -0.03839846 0.19298881 0.11800436 0.07014368 -0.21772695 -0.1635357 -0.08773755 0.18954486 -0.098983295 -0.18244977 -0.1395629 0.025535764
32gb grey 0.06369893 -0.15776177 0.17725839 -0.039332084 0.053743694 -0.36048248 0.09064458 0.054250587 -0.044169705 0.04457808 0.32616138 -0.15039963 -0.1394517 -0.23107679 0.21871747 0.04795652 -0.08038151 0.07576979 -0.10211384 0.1592661 0.21096194 0.27474934 0.034118313 -0.2704905 -0.20231661 0.08444581 -0.24016733 0.11161628 0.07594761 -0.056084856 -0.2679416 0.061118703 -0.01972961 0.15467449 -0.13344033 0.09147588 0.37604794 -0.014720281 0.22401062 -0.06265765 -0.004224847 0.20345527 -0.08466689 -0.13889663 0.10108627 0.0051185344 -0.10282872 -0.23677616 -0.05972646 0.053810064 0.22934611 0.06656888 0.13187544 0.1795759 0.097505204 0.060102116 0.36252704 -0.12242557 -0.18758737 0.20095305 0.00086123886 -0.03676364 0.114294924 -0.04489153 0.1341576 -0.043738496 -0.0048029027 0.11331298 -0.033146694 -0.19002147 0.108876206 -0.10783614 -0.27674028 -0.15405722 0.00964806 -0.19894107 -0.0754199 -0.060150355 -0.1697816 0.24135405 -0.085584775 -0.2482097 0.11524941 0.41036084 0.0595254 0.17756498 0.30442223 -0.16685225 0.14035395 0.27971277 -0.22674014 -0.23579994 0.0040009096 -0.017483985 0.2042204 0.0036012258 -0.2874205 -0.29489297 -0.05387518 -0.18697272 -0.32570967 0.05127988 0.07454864 0.09149954 0.0682065 -0.056930434 0.0729582 -0.08008263 0.053083833 -0.35321364 0.16542222 -0.09008409 0.072247066 0.21600296 -0.19531542 0.000262745 -0.025071863 0.18020174 0.11989005 0.09094099 -0.24106267 -0.1500556 -0.06098536 0.19335867 -0.0865243 -0.21110058 -0.14005536 0.029819623
9at 0.06408623 -0.16431488 0.16713865 -0.03756407 0.04309521 -0.34998545 0.09099226 0.040523127 -0.0320768 0.035685748 0.32550395 -0.14252485 -0.13095424 -0.23002651 0.21633963 0.047782116 -0.07599272 0.075959444 -0.099086925 0.14989763 0.21276721 0.27303463 0.029397486 -0.2728934 -0.19963196 0.08928276 -0.24417712 0.10413863 0.090442345 -0.06367764 -0.2578782 0.06455599 -0.020943722 0.15156156 -0.12690936 0.103553586 0.36787406 -0.012475986 0.21959531 -0.05116947 -0.01481084 0.20650141 -0.07835121 -0.14881958 0.10682254 0.005988497 -0.102860466 -0.23484594 -0.057960868 0.052938323 0.22316991 0.05464428 0.12839074 0.18080507 0.09719163 0.06494332 0.34851816 -0.12726171 -0.19372645 0.18711722 0.014993944 -0.039692793 0.097718954 -0.040969923 0.14451829 -0.04138717 -0.00030834883 0.11200827 -0.03543897 -0.20105383 0.101956084 -0.11719875 -0.27774802 -0.15196255 0.022593603 -0.19107665 -0.0710416 -0.046780046 -0.16409947 0.2333057 -0.0847476 -0.24606933 0.1065241 0.40450594 0.06555261 0.18206878 0.2885725 -0.17647374 0.14211982 0.27738258 -0.22575578 -0.22212711 0.005518679 -0.013609164 0.21522734 0.008959419 -0.282292 -0.2973808 -0.054125372 -0.18635324 -0.32797086 0.038761657 0.08265682 0.07672905 0.06517343 -0.06036271 0.06267172 -0.07789328 0.06217584 -0.35368916 0.16546755 -0.09075235 0.086853914 0.21547969 -0.18139194 0.0005443531 -0.03656122 0.17607404 0.11136963 0.08386478 -0.22834747 -0.1413604 -0.07024778 0.19359973 -0.096131966 -0.20713535 -0.13386051 0.015914759
10 5g 0.070446186 -0.17406505 0.17807823 -0.034646105 0.04769018 -0.33468708 0.07931594 0.035025362 -0.02353522 0.051478997 0.3200362 -0.16275276 -0.1380296 -0.21914247 0.21539356 0.038127523 -0.08155526 0.04848482 -0.08446884 0.15306652 0.1916483 0.24527815 0.04441679 -0.22814882 -0.20740026 0.112955935 -0.20788151 0.10822556 0.079787694 -0.044877335 -0.28324994 0.07046945 -0.020928133 0.1497075 -0.116970666 0.112385415 0.37565312 0.015222967 0.22616953 -0.062695764 -0.014801912 0.19399713 -0.08710732 -0.1419407 0.11686925 0.0070446627 -0.12770681 -0.21693799 -0.038313325 0.059961367 0.20259906 0.04362303 0.12406712 0.1684318 0.056054678 0.052882537 0.31591895 -0.095546424 -0.1826311 0.16524164 0.002986473 -0.023831291 0.10814354 -0.06294156 0.14444563 -0.04767255 -0.036612876 0.09138152 -0.016254412 -0.2032338 0.122031435 -0.1186535 -0.26522458 -0.1710034 0.006615935 -0.18061431 -0.07375422 -0.054540433 -0.15221539 0.22356752 -0.07591425 -0.24704367 0.10374773 0.39384106 0.05565149 0.14427774 0.29698408 -0.17661864 0.1360709 0.25380787 -0.19955532 -0.21627963 0.008491238 -0.011537225 0.2005562 0.019911418 -0.2966971 -0.29229277 -0.02538122 -0.20939507 -0.3150463 0.04104858 0.08823903 0.09218929 0.055621326 -0.058662556 0.06574279 -0.06692093 0.050329626 -0.33818442 0.12164629 -0.09606204 0.090927914 0.17443821 -0.17118883 -0.010364359 -0.02679197 0.1983343 0.10068189 0.08292266 -0.21065764 -0.15383883 -0.07927477 0.18927054 -0.1097666 -0.17437166 -0.12297072 0.025962813
redmi 9at 0.06996454 -0.15804847 0.17887732 -0.030095017 0.05696493 -0.36488605 0.09851378 0.05046401 -0.04298778 0.034817204 0.33215636 -0.13991222 -0.14172386 -0.22611947 0.21752517 0.050413564 -0.0788867 0.064563036 -0.093500964 0.14864299 0.21642677 0.28029877 0.03368126 -0.2735314 -0.19368818 0.081619695 -0.24327476 0.108412884 0.079066105 -0.055194627 -0.2607997 0.065618835 -0.00991892 0.16416553 -0.12491118 0.10426797 0.3796812 -0.001973503 0.23044072 -0.051958766 -0.019291801 0.20941234 -0.07100032 -0.13578467 0.10071096 0.0024977843 -0.10692731 -0.22546498 -0.057602976 0.05990754 0.22537288 0.06687612 0.1268516 0.17974238 0.096192576 0.0605507 0.3536409 -0.13507299 -0.1896823 0.19349185 0.01215709 -0.043711245 0.101734556 -0.04232776 0.14130934 -0.045512374 0.0020479108 0.118395865 -0.03735418 -0.1868209 0.10444377 -0.110980056 -0.2637725 -0.15892315 0.010597989 -0.18923864 -0.07492511 -0.058771074 -0.17055915 0.24405673 -0.09509487 -0.24683341 0.10588154 0.41271597 0.054183353 0.17118382 0.30140993 -0.17888018 0.14343989 0.27649373 -0.22313994 -0.23741324 0.015513502 -0.020718165 0.21175335 0.0018787942 -0.2876678 -0.29775074 -0.04908935 -0.19166528 -0.33333132 0.043665335 0.07424266 0.08143108 0.055469777 -0.0642291 0.07483658 -0.07187245 0.060886264 -0.34814265 0.16669193 -0.09181587 0.07350195 0.21045418 -0.19400392 -0.0023610848 -0.023316054 0.18552274 0.12369195 0.09069562 -0.23024273 -0.14111674 -0.06210577 0.18963492 -0.10031076 -0.20696318 -0.14039074 0.02518004
9at 32gb 0.07337319 -0.17273894 0.17205125 -0.026129398 0.049190693 -0.36651173 0.095063135 0.04176801 -0.04268544 0.03326345 0.32826212 -0.13791288 -0.13125199 -0.22150895 0.22603661 0.053591713 -0.08909114 0.075818926 -0.10756485 0.1536629 0.21799211 0.2799643 0.029678322 -0.2743398 -0.19275424 0.08619163 -0.2419955 0.11366371 0.0881605 -0.057473775 -0.2682594 0.073247254 -0.008801608 0.16280842 -0.11957585 0.09607317 0.37674782 -0.009288131 0.23186742 -0.048952095 -0.007770413 0.20729251 -0.072238296 -0.13799275 0.10908026 -0.001137359 -0.109454684 -0.22291249 -0.056701068 0.05952906 0.22632901 0.05296938 0.13489291 0.17941234 0.093804315 0.069189034 0.35300264 -0.12670894 -0.19807458 0.19891973 -0.0009438622 -0.029353913 0.110300325 -0.04456709 0.13254878 -0.03406076 -0.00502145 0.119886555 -0.03362775 -0.19942771 0.10950356 -0.116559334 -0.27797464 -0.16772243 0.020100847 -0.18869017 -0.07312004 -0.04973576 -0.16709946 0.23256926 -0.0856124 -0.25489458 0.11131523 0.41582632 0.057635672 0.18063307 0.30039075 -0.17515923 0.13804689 0.28597212 -0.218171 -0.23147528 0.009925156 -0.02208681 0.21035787 0.0068006827 -0.28450906 -0.299962 -0.044881202 -0.1858891 -0.33402684 0.044921726 0.06991232 0.08471631 0.06172593 -0.05462276 0.071985476 -0.06983632 0.05931378 -0.35296586 0.16476738 -0.0913529 0.07621099 0.20549606 -0.19627786 -0.013724814 -0.028036686 0.18812026 0.112155244 0.07749521 -0.23828276 -0.14121994 -0.075967364 0.1948439 -0.088525526 -0.19670303 -0.1440044 0.027201386
twilight 0.06318156 -0.15331815 0.16016993 -0.034277137 0.064642616 -0.32631412 0.07523756 0.045806278 -0.024606958 0.022540178 0.3112482 -0.15562105 -0.14919835 -0.20872785 0.21578528 0.048147492 -0.09750926 0.039226927 -0.10749485 0.15043807 0.18913198 0.23895192 0.06317223 -0.23681326 -0.21475483 0.098357 -0.20090324 0.09834812 0.08361757 -0.06894434 -0.25619575 0.042112857 -0.0323797 0.14599031 -0.14638945 0.10770827 0.37042436 0.029412394 0.23533647 -0.057409886 -0.008277731 0.17787543 -0.07824749 -0.14658554 0.12269027 0.016501935 -0.09587682 -0.21974076 -0.03381254 0.06481335 0.17824212 0.060837965 0.111975595 0.18721527 0.04817854 0.06621181 0.34389684 -0.11574259 -0.18821613 0.14816613 0.020861398 -0.036035836 0.11786312 -0.045606695 0.16209851 -0.028954564 -0.015732553 0.09223546 -0.015468287 -0.2094781 0.13254721 -0.11908029 -0.26164722 -0.1685041 0.013715782 -0.17674676 -0.08004134 -0.044715825 -0.13965625 0.23809546 -0.079851344 -0.23281562 0.11156479 0.3685866 0.028980019 0.15366612 0.27654135 -0.15475048 0.14056303 0.2680403 -0.2046539 -0.2246114 -0.0017076855 -0.023603356 0.18827035 0.014751457 -0.27943552 -0.26913023 -0.022848614 -0.19851086 -0.31794354 0.06729527 0.059172753 0.0623048 0.051839422 -0.050443172 0.06528414 -0.0738041 0.04469742 -0.33074528 0.1310392 -0.08295424 0.09289677 0.18291882 -0.1543369 -0.02276615 -0.0446843 0.17815301 0.13232721 0.07092539 -0.22188424 -0.16055728 -0.082892485 0.19110084 -0.10098539 -0.17912333 -0.1402174 0.038384207
128gb twilight 0.062162828 -0.1642818 0.15968724 -0.038934756 0.0630968 -0.33152354 0.07444306 0.052032344 -0.034949183 0.02831547 0.30696377 -0.16553505 -0.1550069 -0.20810664 0.22388169 0.048971504 -0.10178014 0.049143538 -0.10010736 0.14964484 0.20372327 0.2522215 0.050113603 -0.23836268 -0.20608364 0.10248348 -0.20629576 0.09933932 0.09103227 -0.059641715 -0.26146203 0.0443727 -0.027782207 0.13791056 -0.15105392 0.11051419 0.3729529 0.02079273 0.24091208 -0.066644624 -0.005835331 0.17142384 -0.08378059 -0.14130469 0.11757053 0.008861063 -0.10972686 -0.22507119 -0.035600953 0.056203302 0.19440347 0.07083542 0.11922905 0.18415037 0.049863596 0.07163866 0.33547577 -0.1093532 -0.17474024 0.16027425 0.016684558 -0.028981825 0.11723287 -0.04835819 0.1586429 -0.024290968 -0.006146118 0.09771582 -0.014115858 -0.21294649 0.12134318 -0.12092858 -0.26312503 -0.17030534 0.014043717 -0.17189883 -0.071590915 -0.036874313 -0.13546145 0.24032342 -0.089381956 -0.23809683 0.10502083 0.36417007 0.038915373 0.13980047 0.28190163 -0.16386643 0.13724065 0.26518396 -0.21558447 -0.21389776 -0.005700576 -0.031624522 0.19310027 0.02656975 -0.2809041 -0.27162907 -0.026210504 -0.20319258 -0.31386378 0.068488605 0.060630117 0.06690348 0.049095985 -0.039182622 0.064708 -0.07679554 0.043404575 -0.326816 0.13344328 -0.079135805 0.08345578 0.19107725 -0.1621195 -0.017215105 -0.05762187 0.17936613 0.14232342 0.07951808 -0.22806291 -0.15220968 -0.08765299 0.17866394 -0.09970868 -0.17997134 -0.13489912 0.04069568
note 10 0.075550064 -0.17385434 0.17598464 -0.030595785 0.04990623 -0.32184595 0.0659339 0.03754615 -0.023259806 0.05461176 0.3136314 -0.15074882 -0.1397211 -0.2222525 0.20329873 0.03758843 -0.07722688 0.042841513 -0.09559424 0.16370583 0.186272 0.24801663 0.059577838 -0.24540712 -0.20740935 0.10637865 -0.20332079 0.10198011 0.0727009 -0.043178245 -0.27926216 0.06856744 -0.036291625 0.15522835 -0.12416016 0.101023115 0.37294206 0.016852135 0.22490725 -0.06328307 -0.02582292 0.18261388 -0.08655144 -0.13658224 0.13085131 0.005634991 -0.122698806 -0.21423233 -0.04456047 0.06079374 0.20044109 0.048702285 0.11821541 0.16495904 0.053961948 0.06630692 0.329242 -0.10344889 -0.17038962 0.15428524 0.007201348 -0.022323126 0.09983928 -0.063716754 0.15651734 -0.04610009 -0.03447257 0.10335352 -0.020840835 -0.20575166 0.124763034 -0.114210084 -0.2669072 -0.17155072 0.0039730375 -0.1747261 -0.07206572 -0.048412148 -0.1432031 0.22673026 -0.071218885 -0.23543532 0.10523094 0.38782948 0.049101964 0.15773727 0.29971883 -0.17150639 0.13195574 0.24837601 -0.19916882 -0.22975893 0.007946739 -0.026039904 0.19551581 0.026853407 -0.28970668 -0.29133016 -0.019451393 -0.20816115 -0.3066871 0.047545135 0.08820775 0.09436606 0.053129565 -0.049933758 0.06727517 -0.080669895 0.040757596 -0.33960658 0.11284433 -0.08797574 0.093880296 0.17969628 -0.15679187 -0.008784947 -0.02927407 0.20115945 0.10242331 0.07380957 -0.20532236 -0.15556908 -0.07093712 0.18916003 -0.11162979 -0.16904911 -0.1225202 0.017661944
twilight blue 0.05890334 -0.16776086 0.16612487 -0.025435057 0.056950312 -0.32128727 0.0643722 0.043910593 -0.02458172 0.0235459 0.2972912 -0.15081805 -0.14948912 -0.21251082 0.2175796 0.05502325 -0.10178997 0.05324964 -0.09113788 0.15840027 0.19010605 0.24841534 0.04790787 -0.23614016 -0.20452496 0.09555684 -0.21096423 0.10449717 0.08992162 -0.06899476 -0.261546 0.051233437 -0.024620665 0.13100655 -0.1325396 0.10107673 0.36888108 0.022413334 0.23690449 -0.051041055 -0.0042706677 0.16751412 -0.07827743 -0.1442796 0.11878386 0.019726759 -0.09808231 -0.22434783 -0.023666473 0.058732722 0.18386811 0.06457546 0.11195485 0.17923185 0.05634065 0.06765445 0.33704707 -0.11526965 -0.18633357 0.15151812 0.025895039 -0.039457336 0.11921993 -0.043204274 0.15185244 -0.021864068 -0.003519641 0.10272501 -0.008240779 -0.21158482 0.131912 -0.12077414 -0.25969484 -0.17356831 0.019069845 -0.1643662 -0.078966424 -0.044836644 -0.14032453 0.22929025 -0.086430185 -0.23137173 0.10906528 0.3620772 0.030644894 0.14443418 0.27202028 -0.15366198 0.14721182 0.26797622 -0.21175401 -0.22266279 -0.005913974 -0.0274575 0.18689089 0.016818214 -0.27826247 -0.26293978 -0.02001157 -0.19155835 -0.30162656 0.06551729 0.06452807 0.06334779 0.04637915 -0.037993502 0.073744446 -0.074803434 0.054795016 -0.3207518 0.1308619 -0.08858655 0.093210764 0.18288319 -0.16654314 -0.0107502 -0.05515399 0.17614436 0.13178466 0.0832708 -0.2188736 -0.14751242 -0.074199885 0.18633682 -0.106561646 -0.17368728 -0.14158162 0.028634952
atlantic 0.083276086 -0.17677025 0.17533845 -0.03596186 0.050311208 -0.34563202 0.065189324 0.049133603 -0.031180354 0.05989931 0.3030927 -0.16968398 -0.13193612 -0.22813532 0.22529835 0.050648946 -0.10658686 0.061205387 -0.092948586 0.16638713 0.20328529 0.23760489 0.07470587 -0.22923024 -0.20825933 0.09488698 -0.2042976 0.107731305 0.07344342 -0.063807555 -0.2728284 0.06097855 -0.030353056 0.14746864 -0.14389378 0.10996808 0.3908186 0.015038387 0.23507743 -0.0694678 -0.012577462 0.20029046 -0.088903435 -0.14438574 0.116526894 0.022835756 -0.11262014 -0.21254167 -0.03041746 0.071678005 0.19986343 0.047775354 0.12653163 0.18142094 0.05196925 0.053588465 0.32812405 -0.1114482 -0.16823211 0.1830509 -0.00037830436 -0.024789317 0.096253045 -0.030814089 0.15665674 -0.02671684 -0.026273564 0.08931723 -0.010920366 -0.20243089 0.1257865 -0.12244983 -0.25254464 -0.1888126 0.03281747 -0.17209388 -0.07874414 -0.057909403 -0.15333429 0.24870709 -0.08327415 -0.25202206 0.09732723 0.40016627 0.02199355 0.16235945 0.29672462 -0.16076985 0.13973007 0.26362306 -0.22226332 -0.22892152 0.032243736 -0.028039152 0.18239957 0.031070847 -0.293249 -0.29886863 -0.029850755 -0.2031678 -0.31897447 0.06834412 0.09293815 0.0843971 0.053882692 -0.051032558 0.07888162 -0.0660249 0.04336021 -0.33976865 0.12116403 -0.09988049 0.10716915 0.18076241 -0.16424413 -0.014561368 -0.036351 0.19839257 0.13622989 0.07249788 -0.23124287 -0.16540255 -0.08270152 0.20143026 -0.10764921 -0.18068959 -0.15003999 0.010682298
32gb 0.059807073 -0.16723147 0.17647088 -0.040736757 0.041857995 -0.35931972 0.09710158 0.04436029 -0.036957115 0.033322394 0.31945962 -0.1412292 -0.13379295 -0.22870056 0.20868392 0.050540112 -0.0912667 0.069123045 -0.098072276 0.1597943 0.20529959 0.27069977 0.030827109 -0.2665296 -0.19127063 0.08911569 -0.23562808 0.10489386 0.089620925 -0.068027936 -0.2638167 0.0648394 -0.015867716 0.16036211 -0.1282801 0.094025046 0.36330253 -0.013789157 0.21595535 -0.06198392 -0.01747601 0.19712168 -0.07674651 -0.1461937 0.10969948 0.007889683 -0.09948869 -0.22925504 -0.045013838 0.06455308 0.21198301 0.05103173 0.122891076 0.170226 0.09406278 0.06920864 0.35012627 -0.13260789 -0.1818297 0.18985009 0.012868613 -0.040963847 0.10433785 -0.048200652 0.13102779 -0.03846645 0.004350175 0.116691045 -0.03383464 -0.19038016 0.106283605 -0.099653564 -0.27367303 -0.1494417 0.00919911 -0.19028713 -0.06859164 -0.05199778 -0.1666688 0.23529246 -0.08529234 -0.24897118 0.112679474 0.4031205 0.062036596 0.17759131 0.2842325 -0.16587849 0.14436339 0.27698213 -0.20968248 -0.2298394 0.013554973 -0.015338276 0.20306583 0.0052949437 -0.2820935 -0.28634402 -0.0482806 -0.17945996 -0.31952986 0.04732855 0.0723547 0.08184208 0.06249467 -0.051902667 0.06447621 -0.06313452 0.05298663 -0.35007456 0.16329248 -0.08350885 0.08219643 0.21235868 -0.18996453 -0.012546604 -0.031172525 0.17856796 0.11429648 0.08354984 -0.23630744 -0.14250048 -0.0669088 0.18488991 -0.08896007 -0.19552195 -0.13129793 0.022355117
128gb atlantic 0.08393159 -0.17097487 0.17328288 -0.035473168 0.055011563 -0.3351148 0.070645586 0.059446774 -0.04505165 0.06199205 0.30972606 -0.16522565 -0.1376538 -0.22753301 0.216226 0.046677247 -0.09327427 0.06117859 -0.10657653 0.17543209 0.19369799 0.243421 0.07566839 -0.23657109 -0.21671541 0.09503108 -0.20868349 0.10963959 0.06779394 -0.065241955 -0.2697553 0.06069979 -0.02060759 0.14538668 -0.14922191 0.11349184 0.386272 0.0046590837 0.22643454 -0.06551964 -0.01625958 0.19178236 -0.08918124 -0.14881018 0.12719789 0.013530912 -0.114066154 -0.21456271 -0.037027292 0.059727415 0.2100804 0.04382739 0.12688199 0.17960157 0.047263294 0.06113407 0.33868676 -0.11802469 -0.16868013 0.1778995 -0.0023961521 -0.028070433 0.100939564 -0.031534646 0.16102493 -0.027486809 -0.026953178 0.08572589 -0.008429046 -0.20270965 0.1347364 -0.11628069 -0.24611263 -0.18786328 0.035534564 -0.18177779 -0.07781301 -0.047978513 -0.15326859 0.25227684 -0.09436259 -0.25595248 0.10610303 0.39230794 0.027162006 0.16413727 0.283233 -0.16139789 0.1528098 0.2595307 -0.21992643 -0.21958278 0.019462174 -0.020150797 0.18943766 0.04009004 -0.2878893 -0.30137178 -0.01834776 -0.20299861 -0.3187765 0.05241125 0.0771404 0.08070012 0.044547673 -0.0532806 0.07721439 -0.069989555 0.033362735 -0.34307694 0.11732741 -0.09390302 0.10406283 0.18461525 -0.15709236 -0.018125005 -0.027601806 0.20647791 0.14098 0.07681112 -0.22440733 -0.16161335 -0.09406309 0.20169765 -0.107773915 -0.17871718 -0.14218412 0.016681151
128gb grey 0.06829683 -0.17338267 0.17126894 -0.029328626 0.03606337 -0.32631785 0.066594444 0.03627741 -0.021156827 0.050153855 0.31035423 -0.16165176 -0.13763909 -0.20427668 0.21131192 0.046120413 -0.07916584 0.04136398 -0.0835844 0.14911985 0.18214533 0.24707194 0.051316395 -0.2416993 -0.20665409 0.110219635 -0.20764482 0.10647608 0.07712027 -0.048081398 -0.26977855 0.05257775 -0.03281175 0.15441434 -0.119548626 0.10227478 0.37293407 0.025982428 0.22761643 -0.062370785 -0.02751898 0.18073802 -0.076985545 -0.14448966 0.13146313 0.0006906526 -0.12216748 -0.21816935 -0.032388084 0.052367166 0.201914 0.041140262 0.123461105 0.17096704 0.060660653 0.06963385 0.3240914 -0.10041257 -0.17017306 0.1648284 0.008623488 -0.012926513 0.10145399 -0.062028017 0.14416648 -0.04201835 -0.033140574 0.09243914 -0.008639795 -0.20348127 0.12498566 -0.10601745 -0.2575119 -0.16469657 0.017425155 -0.17805395 -0.06570236 -0.039292764 -0.14488244 0.21903145 -0.08574712 -0.24484949 0.107514925 0.38435414 0.0534733 0.14654148 0.28644022 -0.16325305 0.123667 0.23655389 -0.19265333 -0.22776584 0.006290488 -0.020142963 0.19644591 0.021687306 -0.27912244 -0.2820568 -0.029925583 -0.20135996 -0.3087135 0.043050535 0.09188166 0.09787949 0.054351177 -0.05723245 0.060798597 -0.07221412 0.041703165 -0.33551934 0.12458629 -0.08582891 0.08451843 0.18009703 -0.15631709 -0.0055671474 -0.020543078 0.19128709 0.102790035 0.078067556 -0.2150228 -0.13863163 -0.085613705 0.18069498 -0.1063083 -0.1702866 -0.1208007 0.015391403
atlantic blue 0.07156655 -0.16615492 0.1703506 -0.026783653 0.050764915 -0.33164534 0.06383419 0.05451526 -0.042969003 0.05541416 0.3017749 -0.165948 -0.12542224 -0.21687134 0.20618492 0.036818866 -0.09475624 0.04497026 -0.09526 0.16590539 0.19957763 0.23237127 0.07410831 -0.23688501 -0.20019035 0.09959018 -0.20479321 0.111129075 0.07228811 -0.071324974 -0.26927164 0.050896514 -0.023976663 0.13640356 -0.13502853 0.10039261 0.37297335 0.0038122048 0.2160301 -0.06494836 -0.02242859 0.18256864 -0.08183005 -0.14761773 0.12366431 0.01993974 -0.11997573 -0.2067917 -0.039735433 0.07185043 0.20294693 0.058919847 0.12003126 0.1785014 0.04649966 0.05691931 0.32236084 -0.12213169 -0.16920865 0.17630371 0.00019738797 -0.03231242 0.10374222 -0.03983317 0.1462664 -0.035961427 -0.021697601 0.09779458 -0.019409617 -0.19374992 0.13293688 -0.11668323 -0.24875593 -0.17812283 0.028967401 -0.17253067 -0.07604665 -0.059247456 -0.13793008 0.23642805 -0.09413983 -0.24403115 0.10339727 0.38303497 0.028519176 0.15702693 0.28575343 -0.15331677 0.14068188 0.24753451 -0.21540576 -0.21358185 0.02510863 -0.025470495 0.18838708 0.040459096 -0.28334114 -0.29779398 -0.029042173 -0.19701976 -0.3234981 0.06051179 0.08621386 0.07605091 0.056306425 -0.05675461 0.07891761 -0.07248304 0.0432801 -0.33387977 0.124156 -0.08446336 0.096959546 0.17738776 -0.1681042 -0.011273616 -0.031020012 0.20348634 0.12737055 0.06739957 -0.21424933 -0.16384116 -0.07921435 0.19702075 -0.106567755 -0.1801218 -0.14388691 0.011126888
gray 0.06449743 -0.16319712 0.15748687 -0.037606727 0.050308038 -0.31328452 0.07199581 0.052028403 -0.03073722 0.04260084 0.29886675 -0.13699572 -0.12407054 -0.21420701 0.21718009 0.05325181 -0.079001985 0.043994047 -0.0997575 0.16095428 0.20317754 0.23113361 0.056267705 -0.22191568 -0.1994285 0.100459084 -0.20977494 0.099340506 0.076355234 -0.06129925 -0.2647537 0.05544824 -0.032922477 0.13737774 -0.122021794 0.11523964 0.36574176 0.0078055323 0.22788313 -0.061793927 -0.00999073 0.18908106 -0.08999786 -0.13786285 0.12609461 0.0108073 -0.10525179 -0.21269813 -0.036259633 0.05644487 0.19623889 0.056394525 0.113830104 0.17652735 0.059973516 0.046697002 0.32575724 -0.103632115 -0.18847024 0.16776016 -0.004256975 -0.029215978 0.11245194 -0.054361463 0.14725724 -0.046900194 -0.025430504 0.08885251 -0.008126718 -0.19387043 0.114387035 -0.109137274 -0.2478966 -0.16855897 0.013696818 -0.1704937 -0.07018346 -0.044917192 -0.1339187 0.24651642 -0.08268815 -0.23379807 0.11158779 0.37886196 0.041947167 0.14873669 0.26662835 -0.16004436 0.14148444 0.24825358 -0.18550469 -0.22541948 0.022210687 -0.023337748 0.17155144 0.03288146 -0.2828126 -0.2787303 -0.03252647 -0.18724129 -0.30771396 0.0584625 0.074737005 0.08363386 0.057714097 -0.05602255 0.061250877 -0.05714831 0.045342956 -0.33192167 0.11295555 -0.09047797 0.10109389 0.18393743 -0.16416736 -0.01784404 -0.040336154 0.19349094 0.13025802 0.07455806 -0.20962766 -0.15755732 -0.0840854 0.18359803 -0.09858215 -0.17280063 -0.13397408 0.023899328
99 upfront 0.08059699 -0.15178905 0.16312547 -0.004921976 0.06880586 -0.31359005 0.08733117 0.05137886 -0.02585998 0.058641016 0.30525225 -0.15051726 -0.110374786 -0.22894599 0.2184428 0.04682023 -0.07880867 0.06346403 -0.09336902 0.14067067 0.17806414 0.22183204 0.053148597 -0.23593889 -0.19413804 0.08332753 -0.17555363 0.10171251 0.0858015 -0.08186151 -0.2637642 0.047197673 -0.013181332 0.13958497 -0.1469379 0.12679319 0.35830578 -0.007502936 0.22250853 -0.067823336 -0.02493498 0.16189253 -0.09303773 -0.15687099 0.11798983 -0.009299957 -0.121925965 -0.2125473 -0.02964059 0.07301991 0.19107081 0.062122654 0.13349932 0.16035809 0.06389555 0.05971394 0.32406804 -0.11348519 -0.18694994 0.1564551 -0.008552473 0.0027468298 0.08342672 -0.038024183 0.143116 -0.047085248 0.011768785 0.090320505 -0.023491206 -0.16499113 0.11168868 -0.0682506 -0.24699584 -0.14555125 0.020773856 -0.173095 -0.07254992 -0.047071166 -0.11898933 0.25271577 -0.085926786 -0.22792678 0.1071157 0.37109333 0.046034865 0.14052552 0.29117075 -0.17473286 0.12998262 0.24879651 -0.17427899 -0.22986251 0.026064694 -0.007770365 0.16601224 0.040605623 -0.29108453 -0.28288937 -0.021017786 -0.17590556 -0.28725547 0.046313476 0.06662386 0.06417562 0.07071279 -0.039701816 0.053551912 -0.066066794 0.05322127 -0.31870592 0.13125794 -0.09294559 0.09052228 0.18676487 -0.14604372 -0.009516287 -0.045577306 0.18159999 0.10728934 0.092957705 -0.20100865 -0.1402183 -0.05881624 0.16710916 -0.08156898 -0.15858558 -0.11756922 0.034139797
graphite gray 0.06234482 -0.1692832 0.17076772 -0.041491438 0.054752294 -0.31385908 0.06827197 0.052761175 -0.041241366 0.050186932 0.30952817 -0.14399801 -0.13659482 -0.20088498 0.21948473 0.044343762 -0.08427967 0.05743579 -0.09816886 0.16419403 0.1979582 0.23365256 0.05877347 -0.23186058 -0.20607144 0.096186854 -0.20179576 0.11138341 0.08608024 -0.059461925 -0.27167237 0.0617622 -0.031005874 0.13460973 -0.11928754 0.11402525 0.35981923 0.0064320513 0.22742078 -0.061458454 -0.007908013 0.17849037 -0.08501602 -0.14493243 0.11934798 0.010253576 -0.113581344 -0.21426734 -0.036062825 0.07080777 0.19375733 0.0627495 0.119162485 0.18034884 0.049800273 0.045596156 0.32547033 -0.11221739 -0.17362632 0.16727787 0.00021976345 -0.015791336 0.10766962 -0.057135373 0.15379235 -0.04223952 -0.026940286 0.10357907 -0.0017984123 -0.18806374 0.12119229 -0.09602745 -0.24330014 -0.17371361 0.02638853 -0.17100912 -0.08064242 -0.0382956 -0.14514142 0.25052583 -0.08911531 -0.2278175 0.09952418 0.38141757 0.049769975 0.15208486 0.2741409 -0.17033704 0.12961283 0.25255296 -0.18884583 -0.22620304 0.024221167 -0.011448796 0.17192262 0.032533128 -0.2929962 -0.28787708 -0.025831008 -0.1972222 -0.3155148 0.047720235 0.069871396 0.07334339 0.05934595 -0.04234593 0.06877569 -0.06625914 0.051346175 -0.3254351 0.10859658 -0.097887695 0.094043255 0.19268766 -0.16195787 -0.003882527 -0.027878016 0.19377303 0.13759409 0.0889632 -0.20539215 -0.14334488 -0.08996701 0.18351097 -0.10554948 -0.18709834 -0.14766927 0.02792125
4g 0.06287749 -0.1846002 0.17358726 -0.0051086335 0.060490485 -0.3138419 0.07418485 0.040564805 -0.025616122 0.027938027 0.2941754 -0.14803466 -0.13084464 -0.21440257 0.22278397 0.061301675 -0.08113617 0.06619027 -0.0961404 0.17264281 0.21469288 0.24894848 0.05296702 -0.22695443 -0.2175154 0.11517428 -0.2039316 0.11911194 0.08154361 -0.07202495 -0.2754442 0.056979347 -0.01802936 0.13301581 -0.13328144 0.12321331 0.37327075 -0.0037778397 0.20136665 -0.07379485 -0.020972611 0.1700839 -0.06964043 -0.14759146 0.121832795 0.020706886 -0.09784163 -0.21896516 -0.02698025 0.06433091 0.19069676 0.056846157 0.14712343 0.18060645 0.05239534 0.038984228 0.35431826 -0.11625902 -0.18311813 0.16162102 0.021412564 -0.031855915 0.112041384 -0.038116492 0.13906297 -0.03658424 -0.037767008 0.096390724 -0.031268973 -0.19098069 0.12049908 -0.10647079 -0.26832023 -0.17030643 0.022963243 -0.18599308 -0.069931336 -0.027262192 -0.14543948 0.24626078 -0.09151029 -0.2536519 0.11300144 0.38993523 0.060094535 0.15791434 0.2998592 -0.16476971 0.15602075 0.26882297 -0.20706056 -0.23867223 0.030804645 -0.010732465 0.19818014 0.036190674 -0.27863786 -0.28128666 -0.03441026 -0.18634403 -0.3116149 0.061245814 0.08053953 0.07811481 0.03870117 -0.046789676 0.055033077 -0.046392936 0.05645522 -0.34281808 0.13017783 -0.104848556 0.089028455 0.19019446 -0.16906981 -0.020268764 -0.033548806 0.20098099 0.11435979 0.059289113 -0.2199118 -0.16598506 -0.07436302 0.18122666 -0.10675559 -0.19261758 -0.16102411 0.036437124
256gb 0.08106756 -0.17158723 0.16379519 -0.031018015 0.07027123 -0.33116895 0.065203205 0.033696365 -0.0433506 0.033231948 0.31650978 -0.1567236 -0.12228927 -0.23851682 0.23597631 0.044720553 -0.115427084 0.040462747 -0.082914434 0.14685544 0.19322082 0.2678792 0.06828357 -0.23480855 -0.1828145 0.10385613 -0.20500164 0.13306835 0.09296844 -0.0682496 -0.26202017 0.025421798 -0.0128122 0.1393159 -0.12935375 0.10180232 0.35808498 -0.0076449444 0.23896481 -0.054890215 -0.008618266 0.18015881 -0.07253929 -0.17843406 0.1295364 0.0029097204 -0.121569484 -0.23998614 -0.040813826 0.06235966 0.19516249 0.053342126 0.12276632 0.15016642 0.078073725 0.04002667 0.33083123 -0.11650359 -0.18805946 0.13721547 0.016846707 -0.032044794 0.10338051 -0.04536978 0.1531374 -0.03236658 -0.0035393152 0.108216695 0.0074583106 -0.20758118 0.12717193 -0.11309585 -0.26024446 -0.17080532 -0.0068038157 -0.18623327 -0.06766418 -0.026908904 -0.14170183 0.2718021 -0.09616885 -0.21620071 0.11952131 0.3949654 0.05381941 0.12352005 0.3016759 -0.17540446 0.14332666 0.26917285 -0.21045077 -0.23561896 0.03045021 -0.0043258765 0.20409289 0.012872336 -0.3100877 -0.2726368 -0.023036195 -0.23315033 -0.2871597 0.049685497 0.042874448 0.07352669 0.027388966 -0.04288243 0.05896913 -0.0520228 0.042527568 -0.33366337 0.13488138 -0.06165909 0.10362946 0.18228859 -0.17685555 -0.038761105 -0.016476516 0.18013169 0.12529954 0.06301153 -0.24954729 -0.1623534 -0.09491817 0.17133589 -0.08556614 -0.17484881 -0.1476792 0.027322708
redmi 10 0.058381066 -0.1822607 0.15443909 -0.0077483165 0.055987656 -0.32591417 0.07808695 0.0492101 -0.03685584 0.027561096 0.296014 -0.15951169 -0.120719984 -0.20214532 0.223162 0.0513834 -0.079387024 0.06646686 -0.10459948 0.17321934 0.2009148 0.24056923 0.03886042 -0.22799811 -0.19657058 0.10502086 -0.20675649 0.107084826 0.07570838 -0.062231544 -0.26978227 0.06546293 -0.017318577 0.12699334 -0.13511014 0.11854081 0.3523576 -0.0027851476 0.19867718 -0.07532979 -0.026243996 0.17950211 -0.06678598 -0.1457896 0.11863698 0.015466047 -0.103244424 -0.22127074 -0.03659184 0.073588006 0.20245633 0.051433414 0.1438379 0.1651521 0.042036537 0.038026884 0.33865938 -0.11075429 -0.17295994 0.17197178 0.017018495 -0.024758616 0.09526002 -0.05307216 0.13770925 -0.025447877 -0.040366624 0.101254895 -0.022813383 -0.19081467 0.11399568 -0.10971609 -0.26056767 -0.16964597 0.027112331 -0.18272747 -0.076077044 -0.034587994 -0.14639004 0.23152389 -0.089425765 -0.24276872 0.10806701 0.382471 0.056220826 0.15596417 0.29025936 -0.17261048 0.15334184 0.24756294 -0.19040032 -0.23623131 0.020830147 -0.007031877 0.1854977 0.041121185 -0.27350104 -0.2874862 -0.03415383 -0.19536233 -0.31692538 0.056223817 0.08738267 0.090692334 0.033096343 -0.05112556 0.05481598 -0.054301538 0.04744868 -0.33670115 0.13297805 -0.10412764 0.08577374 0.19022904 -0.17036287 -0.021002421 -0.0324833 0.18236831 0.10731795 0.07129392 -0.22509897 -0.15808582 -0.078043036 0.17647018 -0.097561315 -0.16959074 -0.15184486 0.036561944
free 0.06280198 -0.17677365 0.14682424 -0.023475893 0.053468034 -0.32206059 0.07574436 0.052740075 -0.021180967 0.034278367 0.30803722 -0.15217596 -0.13408142 -0.20393038 0.21495698 0.049547575 -0.0948768 0.04571653 -0.10797646 0.16676268 0.20078278 0.24509178 0.046182223 -0.23425765 -0.20421986 0.092071846 -0.20891179 0.09905696 0.08960117 -0.07671901 -0.26496395 0.05860073 0.00065002136 0.1479283 -0.1328503 0.121986814 0.3566153 0.0069224457 0.22725183 -0.060731716 -0.00821153 0.19346544 -0.07007192 -0.15009819 0.12366423 0.008899012 -0.104159236 -0.20646614 -0.041936908 0.054563217 0.20154321 0.05499451 0.12310921 0.1915493 0.07748402 0.047614653 0.32590652 -0.12632158 -0.16707993 0.17850083 0.0030225879 -0.016421176 0.11210461 -0.039618287 0.15095058 -0.02507806 -0.012753065 0.10371663 -0.015963677 -0.18059514 0.11516635 -0.09608941 -0.2577917 -0.157061 0.021018773 -0.17630875 -0.06891512 -0.049264416 -0.14436467 0.2492804 -0.09411199 -0.25707436 0.10606624 0.3799517 0.05809607 0.14005704 0.2804781 -0.16597839 0.14400312 0.2480269 -0.19587083 -0.22229819 0.01356643 -0.0141520295 0.18284616 0.026898872 -0.29532856 -0.27588958 -0.041318793 -0.1846899 -0.3113079 0.057154443 0.0709414 0.07915974 0.028316379 -0.056270234 0.07365788 -0.05118643 0.031240776 -0.32916433 0.12709536 -0.09870492 0.091706805 0.2045339 -0.1809505 -0.035111908 -0.026354492 0.19111027 0.10815834 0.075730614 -0.22607203 -0.16252217 -0.075512 0.1808259 -0.09978443 -0.1718169 -0.12566736 0.023730125
sim free 0.058836855 -0.16773798 0.1486792 -0.017532276 0.057735488 -0.3259909 0.07994381 0.046427503 -0.030835545 0.04044438 0.31270713 -0.14300595 -0.12610956 -0.20247954 0.20899002 0.059074737 -0.09851493 0.048137285 -0.10698376 0.17189305 0.19046056 0.23454791 0.0564109 -0.24310051 -0.20356359 0.098635904 -0.20875424 0.10984735 0.08563743 -0.073963866 -0.2523324 0.067662895 -0.0060546827 0.15056121 -0.14236218 0.109065406 0.3666926 0.016216833 0.22007307 -0.06605028 -0.008450283 0.18619107 -0.07075408 -0.14658222 0.12876433 0.0015913581 -0.11732337 -0.21281128 -0.03218731 0.057082426 0.19855264 0.0479408 0.114897765 0.18963975 0.073723204 0.05059733 0.32223594 -0.12141415 -0.17121129 0.18076207 0.006569244 -0.02055921 0.102184504 -0.04601939 0.13734151 -0.021458734 -0.021256097 0.09273984 -0.022000607 -0.1745468 0.12665434 -0.099712126 -0.24481657 -0.16426073 0.03350096 -0.17532757 -0.06618914 -0.05120141 -0.1285091 0.24982369 -0.083830476 -0.24743159 0.09903697 0.37070036 0.056529757 0.13795838 0.2714451 -0.15820642 0.13627996 0.26091692 -0.20688449 -0.20622481 0.021779412 -0.021885615 0.18520029 0.02592181 -0.2816491 -0.27068537 -0.038773667 -0.17842735 -0.3087512 0.060823455 0.06628786 0.067348115 0.02860919 -0.04383401 0.06637419 -0.055079825 0.041948713 -0.31393665 0.12682599 -0.09224577 0.09091799 0.19461654 -0.17993346 -0.03187768 -0.034132272 0.1939875 0.11190209 0.06882245 -0.21704103 -0.15151444 -0.067268975 0.18327431 -0.10440966 -0.17928766 -0.13152663 0.019177841
s1 0.061634544 -0.15101011 0.15311691 -0.009432761 0.04778199 -0.27453336 0.046761908 0.06871852 -0.04490828 0.04020948 0.29350555 -0.13042127 -0.11775603 -0.20492375 0.22077103 0.0527538 -0.08522045 0.065101005 -0.07035372 0.1334689 0.17919925 0.22930658 0.056367565 -0.24168895 -0.20565924 0.08626104 -0.18435249 0.08951044 0.06969785 -0.0811465 -0.21482953 0.03869517 -0.019262977 0.1302065 -0.1271547 0.094059296 0.36455688 0.010876365 0.18454443 -0.053580463 -0.034412913 0.16800109 -0.06637675 -0.13356705 0.1045671 0.007394965 -0.113994524 -0.20287974 -0.016917145 0.05833509 0.16810255 0.055219967 0.11965869 0.16323537 0.06499679 0.05815696 0.31595725 -0.12876457 -0.16600855 0.16021349 0.008503884 -0.012564243 0.103487 -0.030191548 0.13319884 -0.034184154 0.009774957 0.09179617 0.010391982 -0.19844608 0.11160684 -0.09961874 -0.2544081 -0.16887005 0.026072597 -0.17520948 -0.06755517 -0.027490007 -0.13123825 0.20611945 -0.06451387 -0.20585535 0.11273276 0.38590303 0.008730401 0.15704381 0.27634883 -0.14871849 0.13689885 0.2306509 -0.15850581 -0.19813019 0.017584829 0.0059054648 0.1822113 0.018734429 -0.26726103 -0.28214145 -0.021076888 -0.18007864 -0.3035641 0.0735868 0.041323964 0.06686655 0.05928555 -0.019300165 0.07888797 -0.054991115 0.05477834 -0.32415003 0.13804589 -0.099499635 0.072715454 0.17405488 -0.15201353 -0.030337382 -0.01971285 0.18425511 0.11361148 0.058174353 -0.19800693 -0.14186324 -0.072007 0.17261101 -0.10971179 -0.15578684 -0.13886842 0.045382783
sim 0.066085294 -0.17249149 0.15114033 -0.017536594 0.053035792 -0.32379305 0.066934474 0.0429145 -0.030136034 0.047620073 0.29487693 -0.14547046 -0.124430545 -0.19867332 0.20160645 0.055556126 -0.09403966 0.054600697 -0.1088352 0.16672948 0.18391478 0.22985955 0.05026334 -0.23362112 -0.19910765 0.09548919 -0.19697437 0.09945201 0.078510396 -0.072105326 -0.24740614 0.064897515 -0.0015391089 0.14587718 -0.13735098 0.11747952 0.3486911 0.013516274 0.21127273 -0.06416457 -0.009773216 0.17906156 -0.080347314 -0.14556845 0.12062165 0.0117618255 -0.11500797 -0.20567966 -0.037054196 0.05344841 0.1878384 0.05454798 0.12824827 0.1860756 0.07155264 0.057976533 0.3183187 -0.11770202 -0.16172306 0.17534861 0.009784031 -0.012441479 0.102896035 -0.041789714 0.13514063 -0.022748126 -0.009352331 0.08813142 -0.015058633 -0.17270216 0.12329256 -0.09234547 -0.2383925 -0.16261524 0.033110727 -0.16546585 -0.07153244 -0.04765412 -0.12622705 0.24326557 -0.09162051 -0.2457231 0.097316146 0.3746816 0.049231164 0.13616447 0.27615586 -0.15249586 0.13905366 0.25394624 -0.19497165 -0.20482959 0.027643943 -0.012556019 0.17693223 0.033885445 -0.28832927 -0.26761463 -0.03350665 -0.17468911 -0.31501013 0.052875746 0.079385534 0.06962026 0.035135195 -0.042982418 0.07578934 -0.058568332 0.0331973 -0.30804724 0.11459395 -0.08913111 0.094261594 0.18189749 -0.17343643 -0.032417417 -0.032624613 0.19268091 0.10525118 0.07306033 -0.20569089 -0.15812618 -0.06980687 0.18057331 -0.10191979 -0.17787202 -0.122956 0.022121636
watch s1 0.07713173 -0.15387112 0.15533629 -0.010382474 0.04652177 -0.2797179 0.047690544 0.06866771 -0.043344617 0.035785902 0.30221492 -0.11961784 -0.12040831 -0.20168309 0.2192934 0.045541912 -0.082319416 0.07284461 -0.070489645 0.13202439 0.17424679 0.23829894 0.055787876 -0.24832554 -0.19941472 0.07561617 -0.18356213 0.097562246 0.06730419 -0.08245144 -0.21513551 0.048580956 -0.017173296 0.13224904 -0.117880076 0.09327841 0.36643252 0.009097199 0.18803388 -0.0637174 -0.028140374 0.17793843 -0.07040334 -0.14608163 0.1104843 0.0023115086 -0.1214549 -0.19269228 -0.009465934 0.061002705 0.17919485 0.054545637 0.10670708 0.16508088 0.069338396 0.062375005 0.3219448 -0.127782 -0.16528521 0.15021889 0.008242179 -0.011274241 0.095752664 -0.03330324 0.14258578 -0.037655417 0.004581901 0.10810863 0.009189679 -0.19316909 0.11073416 -0.1061328 -0.25940004 -0.16706085 0.034099255 -0.16226785 -0.059735175 -0.039738715 -0.13081758 0.21263099 -0.07174578 -0.20493296 0.11498327 0.38061315 0.011441824 0.1612988 0.28585976 -0.14501062 0.13329637 0.24338353 -0.15597713 -0.21701664 0.031780835 -0.0008046761 0.17655276 0.023566594 -0.26112902 -0.284752 -0.010869538 -0.19089822 -0.3094958 0.07079119 0.0439534 0.07746121 0.061951067 -0.018123211 0.082126975 -0.069268316 0.05263865 -0.33105323 0.13177782 -0.08594254 0.07105467 0.18444835 -0.16240332 -0.033057418 -0.013314807 0.19114465 0.12220729 0.065977134 -0.19549775 -0.13694438 -0.07950245 0.17781086 -0.110542625 -0.1530782 -0.14119866 0.039334774
watch 0.07117534 -0.14965658 0.14337677 -0.020076735 0.036085185 -0.27066898 0.04815537 0.060062025 -0.04838355 0.035283476 0.2875735 -0.12267022 -0.1090929 -0.1948841 0.21795058 0.04924231 -0.0728242 0.068572976 -0.07197328 0.13780008 0.16733208 0.22423041 0.057745293 -0.24252744 -0.19289786 0.07441374 -0.17348237 0.094159834 0.07090326 -0.078834854 -0.21258776 0.037582424 -0.024175234 0.134138 -0.12556233 0.0942423 0.35817683 0.013259515 0.19625983 -0.047853794 -0.020888498 0.16103974 -0.06564433 -0.12847564 0.105004095 0.0071494957 -0.118038885 -0.19797379 -0.0074977935 0.059203397 0.1747292 0.04879846 0.117661804 0.15795745 0.059514053 0.058974586 0.32017228 -0.125933 -0.1609129 0.15128148 -0.0004344121 -0.017067667 0.08591354 -0.026380584 0.13544443 -0.04299237 0.0034955405 0.10079744 0.012319782 -0.19639653 0.11085344 -0.10042786 -0.24785511 -0.16024497 0.035710514 -0.16526729 -0.05316288 -0.035815805 -0.13241717 0.21748818 -0.06500497 -0.20774785 0.10449093 0.37595868 0.014253308 0.15819149 0.27031478 -0.15374275 0.13614729 0.23045993 -0.15867306 -0.21133868 0.024851996 0.0031591447 0.18037863 0.014298101 -0.26622123 -0.2661658 -0.013988457 -0.17981355 -0.30103487 0.06402904 0.040865764 0.0722514 0.050865576 -0.02514544 0.07815233 -0.059927035 0.04324948 -0.31523556 0.12395799 -0.0939983 0.075106755 0.18294759 -0.15865064 -0.023489527 -0.015557192 0.19096737 0.11883157 0.057089467 -0.1891726 -0.13016239 -0.06739315 0.17072518 -0.105670296 -0.15174925 -0.12881908 0.042952154
12 256gb 0.06360899 -0.16842306 0.16449867 -0.03560194 0.062317077 -0.3163957 0.07052632 0.0278153 -0.036549196 0.024753343 0.30123165 -0.14987661 -0.12430982 -0.21777335 0.21622372 0.048147228 -0.09324195 0.027178498 -0.06927287 0.14177378 0.18254341 0.252774 0.056339186 -0.21590407 -0.17940587 0.10459662 -0.1879673 0.12468721 0.08450618 -0.072124615 -0.24209194 0.028293109 -0.0017241203 0.13865238 -0.113374405 0.10114502 0.33597493 -0.001272051 0.21293208 -0.038519405 -0.008003195 0.18094377 -0.075908236 -0.16482496 0.12569043 0.004542142 -0.12042431 -0.22824036 -0.036970045 0.058776043 0.17259799 0.05613724 0.11482424 0.13832736 0.06776801 0.031674124 0.30800647 -0.11115879 -0.1945742 0.13741001 0.0019032512 -0.039428156 0.10165898 -0.040376943 0.15573359 -0.021971678 -0.015901737 0.08695876 0.015346595 -0.18260808 0.12735198 -0.10306861 -0.25254396 -0.16957748 -0.009314255 -0.16403532 -0.06719684 -0.024811814 -0.1413278 0.25712037 -0.0910026 -0.20408033 0.10180555 0.35729578 0.055880986 0.114187926 0.26255003 -0.15865064 0.11973614 0.2628263 -0.19116254 -0.22606127 0.026357317 -0.005445394 0.19819418 0.018826637 -0.2901263 -0.26324663 -0.008903301 -0.21568158 -0.27150378 0.038570978 0.048457373 0.07068278 0.03324488 -0.05305951 0.06250005 -0.06129516 0.05752215 -0.323682 0.11404241 -0.061732527 0.105938174 0.17737624 -0.16582917 -0.02632356 -0.02988408 0.16424681 0.1115244 0.07000199 -0.2356303 -0.1629428 -0.086626984 0.1696072 -0.083634794 -0.15767352 -0.12777963 0.027411003
64gb 0.06094776 -0.15580328 0.14569509 -0.013747941 0.05443167 -0.29286173 0.06671056 0.043467402 -0.025114188 0.02339032 0.27064654 -0.1356818 -0.114762835 -0.19180132 0.19675009 0.052823212 -0.07572809 0.058617517 -0.09489859 0.15783794 0.19317012 0.21960026 0.04632733 -0.22118562 -0.18084027 0.09834343 -0.19200443 0.103282966 0.06745821 -0.054179985 -0.23744601 0.056110065 -0.005501726 0.12002398 -0.1190732 0.10125087 0.32634562 -0.0037096797 0.18836747 -0.0712596 -0.02574505 0.16557015 -0.06673639 -0.14332664 0.12088136 0.012724702 -0.10633758 -0.20607708 -0.03849348 0.07254887 0.18519996 0.06104956 0.13002796 0.15793173 0.03805294 0.035113562 0.3239834 -0.10714376 -0.16653079 0.15639883 0.0032950286 -0.015017267 0.08658021 -0.0390188 0.11931986 -0.023447605 -0.03047644 0.09168662 -0.027420102 -0.1726116 0.1141629 -0.09623381 -0.23966539 -0.14733936 0.015450441 -0.17170586 -0.07397535 -0.03101074 -0.1402287 0.21820253 -0.07682616 -0.2370279 0.10230895 0.36967674 0.058767937 0.1429604 0.27210706 -0.15404938 0.14747056 0.23694593 -0.1850165 -0.2175662 0.01785511 -0.009136609 0.17644264 0.03135353 -0.25655487 -0.26849428 -0.035117056 -0.18634602 -0.28283873 0.055142798 0.07037578 0.0860166 0.039052445 -0.055840243 0.051451616 -0.053988393 0.03627171 -0.3009661 0.12514515 -0.08652026 0.080202855 0.16852795 -0.14709559 -0.024708526 -0.029993009 0.17152867 0.10144148 0.05485436 -0.20143402 -0.15047495 -0.068133876 0.15039472 -0.09551469 -0.16910022 -0.14397465 0.032579783
10c 0.05355842 -0.1533908 0.1524461 -0.01238234 0.052007105 -0.28093413 0.06952647 0.04510889 -0.02126962 0.020492591 0.27093464 -0.14461394 -0.11131501 -0.17815062 0.19340065 0.04059275 -0.07219957 0.060333714 -0.08528301 0.14734404 0.18781105 0.22621696 0.039785963 -0.21085377 -0.18256103 0.083115116 -0.181808 0.10893984 0.06777566 -0.06452991 -0.23944393 0.043681983 -0.012188558 0.1250467 -0.11802421 0.097208366 0.33109412 -0.0057636797 0.1806116 -0.072606 -0.012059286 0.15650758 -0.07003692 -0.13972051 0.11872634 0.009167076 -0.1005424 -0.19497475 -0.035610132 0.071283504 0.18547949 0.05012191 0.119218014 0.15821736 0.03576229 0.043267783 0.31156728 -0.09881625 -0.1693393 0.14965743 0.004210995 -0.0128158815 0.098394535 -0.046197023 0.117441654 -0.02638721 -0.026604697 0.09221362 -0.029561121 -0.1680596 0.10788409 -0.08774445 -0.2378208 -0.1498205 0.017489629 -0.16203845 -0.06284266 -0.035946846 -0.13539806 0.20889847 -0.08706232 -0.2210401 0.09503732 0.34059522 0.05662394 0.14510974 0.26630792 -0.15448314 0.13436958 0.23810546 -0.18558033 -0.21316609 0.012495173 -0.0058174348 0.16102889 0.03556772 -0.24451078 -0.25398675 -0.038017295 -0.16629595 -0.27524132 0.04265789 0.07315106 0.08239449 0.041537296 -0.048754137 0.060273092 -0.05356508 0.033906873 -0.29223746 0.11447274 -0.08594543 0.0745344 0.16411112 -0.1472122 -0.018319124 -0.027725603 0.17893802 0.10381719 0.053444427 -0.20391232 -0.14104383 -0.072286926 0.14574209 -0.08064136 -0.16163352 -0.13810658 0.033236716
64gb graphite 0.05543693 -0.16065009 0.14787614 -0.009542768 0.048694216 -0.29380322 0.06795519 0.04515849 -0.021898367 0.02073308 0.26424178 -0.13956645 -0.10834168 -0.18429479 0.1981413 0.043747954 -0.07591718 0.058615375 -0.092521876 0.15869276 0.18500814 0.22921334 0.04179527 -0.2104535 -0.18074086 0.08661987 -0.17458628 0.10548168 0.07360444 -0.059555672 -0.23070507 0.056674946 -0.0161168 0.124938056 -0.11354684 0.10799985 0.32596952 0.0031206817 0.18235493 -0.069499455 -0.027810328 0.15685806 -0.069320396 -0.13234396 0.11299636 0.012637588 -0.09244734 -0.20717561 -0.025168812 0.069184706 0.18728206 0.05423445 0.12154476 0.159508 0.0377567 0.035333928 0.3112879 -0.10458615 -0.15904453 0.14696854 0.012908976 -0.021221343 0.09883272 -0.048370384 0.120730914 -0.028734844 -0.028367171 0.08818778 -0.026439691 -0.160521 0.10228759 -0.09030962 -0.236129 -0.14039916 0.022466376 -0.15978393 -0.07065735 -0.037382293 -0.13943681 0.21462809 -0.0732857 -0.23063366 0.099304 0.35473686 0.057591815 0.13753296 0.26793894 -0.16211393 0.1362688 0.23988086 -0.1781433 -0.21348515 0.014903253 -0.01576411 0.17004937 0.03884276 -0.26033032 -0.25341642 -0.034715243 -0.17048688 -0.27809685 0.050520595 0.0686679 0.068443626 0.03165398 -0.045039445 0.046627425 -0.04247526 0.04260322 -0.29847986 0.12700889 -0.08952993 0.08084727 0.1717379 -0.14090805 -0.01740367 -0.03098309 0.16941477 0.09574872 0.067114994 -0.19283065 -0.13432373 -0.066075146 0.14472403 -0.079003 -0.1721071 -0.1329595 0.029882649
pro 256gb 0.07957197 -0.1587514 0.14145674 -0.03274982 0.054401256 -0.27909532 0.053593002 0.04593864 -0.046922725 0.044062324 0.271928 -0.13943934 -0.11972391 -0.19775337 0.19338171 0.04287194 -0.10178962 0.058311965 -0.07460205 0.12679875 0.16168696 0.23335226 0.05531051 -0.22037865 -0.16679151 0.08195469 -0.17844115 0.112395264 0.076833606 -0.06254623 -0.22106567 0.031035928 -0.013723698 0.12441333 -0.12615521 0.08922833 0.33228487 0.0039190208 0.20943765 -0.055784423 0.0022583422 0.14892408 -0.061374724 -0.15287049 0.11636335 0.011862158 -0.1124928 -0.19418775 -0.039101776 0.057178907 0.1787833 0.043588996 0.12319768 0.14197999 0.060878806 0.058779713 0.30381453 -0.102852315 -0.14733618 0.12737599 0.0061798515 -0.015292108 0.08603657 -0.026146056 0.1430746 -0.039893035 -0.009004105 0.104565576 -0.01783668 -0.18699779 0.110384844 -0.10640257 -0.22189249 -0.1468025 -0.005249682 -0.15825683 -0.06842954 -0.036939144 -0.11472181 0.2311865 -0.080009565 -0.20010385 0.1009912 0.35793564 0.046628702 0.13169476 0.2705016 -0.15590823 0.12412499 0.22045906 -0.17484757 -0.20771676 0.022330243 0.00433957 0.1618591 0.022570001 -0.26248965 -0.24828903 -0.02292365 -0.19714503 -0.2556372 0.05272061 0.038557805 0.06190975 0.038970914 -0.035794523 0.055625815 -0.04457433 0.023541758 -0.29329678 0.13265876 -0.069238 0.080359496 0.1777823 -0.14058056 -0.03411546 -0.030579466 0.16348651 0.12426359 0.06001796 -0.1962145 -0.142833 -0.07064575 0.1490257 -0.074584685 -0.14887278 -0.13100724 0.02372357
purple 0.059977945 -0.1676027 0.15406343 -0.025840124 0.068094775 -0.31127104 0.07800005 0.016974317 -0.042177565 0.04009695 0.27767986 -0.1355185 -0.115399145 -0.21928248 0.20802312 0.03534629 -0.07855773 0.033756092 -0.08020892 0.14455082 0.18943812 0.23148693 0.04329361 -0.21583526 -0.1697775 0.111039184 -0.18883657 0.11729953 0.0868099 -0.07507048 -0.23775978 0.039146133 -0.023738345 0.11869044 -0.10448416 0.08638431 0.31568748 0.000118581476 0.22292714 -0.033243813 -0.013032686 0.15961051 -0.063612446 -0.14984904 0.112333715 -0.0062311506 -0.11806711 -0.20274618 -0.02738394 0.0508123 0.17790297 0.051027592 0.108931564 0.14099962 0.06269737 0.03481865 0.30779383 -0.11580238 -0.17907856 0.13800193 0.007571774 -0.027633887 0.102812715 -0.029474357 0.1510985 -0.026815334 -0.0030386406 0.097044475 0.0110219 -0.1750621 0.096688725 -0.091093846 -0.23377791 -0.154607 -0.014955154 -0.16893528 -0.06442025 -0.03010768 -0.123365626 0.2306834 -0.09143766 -0.19308214 0.1161058 0.3546433 0.046822313 0.11836842 0.2744105 -0.16145739 0.12170327 0.24202466 -0.17026243 -0.20279461 0.019571684 -0.0140750175 0.17381558 0.021022242 -0.27534926 -0.24295074 -0.006601389 -0.20826067 -0.25213587 0.036889225 0.04380009 0.0800912 0.02486932 -0.039587896 0.045067076 -0.07541592 0.028659508 -0.30367792 0.12151783 -0.057876524 0.09326678 0.17256439 -0.15571095 -0.039618805 -0.011521043 0.15018928 0.11876223 0.059674274 -0.21512695 -0.14637944 -0.06091838 0.14622633 -0.07744127 -0.14767782 -0.12104273 0.018978117
redmi 10c 0.049179744 -0.15552802 0.13953778 -0.014400886 0.04466049 -0.27229562 0.06891773 0.033261083 -0.029828858 0.022130918 0.2551954 -0.13307378 -0.10823857 -0.17381476 0.19250564 0.04258857 -0.06664371 0.046567187 -0.09500737 0.14867865 0.17182341 0.21114501 0.045531634 -0.21100657 -0.18009694 0.090508096 -0.17431818 0.09629653 0.06654332 -0.05004335 -0.22761819 0.04926444 -0.018095955 0.112042546 -0.11591222 0.094457924 0.30690718 0.0019147648 0.17657714 -0.06497801 -0.020601762 0.15241377 -0.058834605 -0.1261684 0.11631167 0.014181728 -0.09073533 -0.19060192 -0.025451425 0.06025533 0.18190506 0.044391718 0.118626654 0.15607975 0.051360656 0.035155725 0.30523822 -0.09690234 -0.16153964 0.15352121 0.0048357807 -0.012517936 0.08159469 -0.045454435 0.12562779 -0.029748242 -0.031916913 0.086723715 -0.029218553 -0.1583887 0.113156274 -0.09235766 -0.21969052 -0.14648148 0.021805035 -0.1531569 -0.07188231 -0.03358774 -0.13325797 0.21536568 -0.081882045 -0.20909354 0.093758486 0.3437826 0.052592617 0.1433072 0.25294727 -0.14471485 0.13163024 0.2238347 -0.1770396 -0.19778591 0.024829676 -0.0035428137 0.16661733 0.03617156 -0.24582261 -0.24610113 -0.03238435 -0.17299205 -0.2782029 0.05207008 0.061504155 0.079617664 0.030585248 -0.04479253 0.049277518 -0.043297555 0.04320266 -0.2849245 0.114303045 -0.08585174 0.071601905 0.1728796 -0.14883031 -0.013777042 -0.023854466 0.17641748 0.101748444 0.061512474 -0.18780829 -0.13169535 -0.07626649 0.14441362 -0.085656635 -0.15972918 -0.1244897 0.024521641
10c 64gb 0.053185817 -0.14361922 0.14283036 -0.0057445685 0.056411866 -0.27358788 0.068226896 0.0305107 -0.021648377 0.023910074 0.2598771 -0.13076635 -0.097535044 -0.17387213 0.19584867 0.04430171 -0.07780843 0.04574996 -0.093099646 0.14752431 0.18144527 0.21658474 0.040360067 -0.20295651 -0.18122816 0.09340702 -0.16891734 0.097414404 0.07530178 -0.06386633 -0.2342823 0.058175888 -0.009712343 0.107777335 -0.107046865 0.09216583 0.31189936 0.0032176038 0.16911587 -0.05638322 -0.022381531 0.1477907 -0.057434104 -0.12040327 0.114405 0.014048355 -0.09207734 -0.1952089 -0.030370938 0.05945567 0.17640813 0.056394864 0.12258633 0.14935158 0.03893842 0.04439962 0.30207387 -0.10323412 -0.15277229 0.15117946 0.0065001394 -0.013384886 0.081681445 -0.049158957 0.11404957 -0.03539822 -0.032549668 0.089890905 -0.02704944 -0.15615666 0.10463265 -0.09156611 -0.2293954 -0.14569962 0.021162013 -0.14555359 -0.06614603 -0.026755856 -0.12976162 0.21466139 -0.078875616 -0.21846814 0.09492842 0.33274093 0.0546861 0.12693873 0.251127 -0.1406615 0.13506764 0.22010544 -0.17575243 -0.20587666 0.022391083 -0.015165357 0.16726238 0.038348597 -0.23480228 -0.2382512 -0.03367507 -0.15637796 -0.27378064 0.05504364 0.06264592 0.07363339 0.03512793 -0.04292529 0.06016016 -0.046276264 0.03228217 -0.27794716 0.11690083 -0.08681672 0.079576865 0.161971 -0.13694313 -0.017651185 -0.022533355 0.17136924 0.09595175 0.05138039 -0.18948562 -0.13278791 -0.073717505 0.13926518 -0.08327037 -0.15776077 -0.13129564 0.020935236
256gb grey 0.07050999 -0.12559153 0.12332751 -0.03692007 0.047613375 -0.27357307 0.05904673 0.02882484 -0.040382404 0.023932822 0.26420888 -0.118513905 -0.1169142 -0.19523771 0.17340274 0.042591564 -0.09214588 0.04164308 -0.05901579 0.11536885 0.15132274 0.222428 0.056188922 -0.19687647 -0.16819319 0.06907711 -0.1765151 0.09713037 0.079373844 -0.055416018 -0.20115697 0.025638143 -0.005627601 0.12473141 -0.11573257 0.1018958 0.29304162 0.0069691683 0.17159678 -0.053199377 -0.008338751 0.16094738 -0.060639076 -0.14605366 0.101667404 -0.0015590762 -0.107734784 -0.18779539 -0.022721408 0.04367981 0.17624727 0.047996543 0.09301842 0.13500783 0.062953435 0.048188444 0.270868 -0.082911484 -0.15688616 0.114545725 -0.008205556 -0.015093821 0.07900353 -0.04614243 0.1159283 -0.028520333 -0.0013170548 0.080652416 -0.0034359586 -0.16629115 0.11954371 -0.08619299 -0.22484262 -0.15069795 0.00026329342 -0.13782972 -0.05140464 -0.02307964 -0.11557124 0.21917045 -0.06732009 -0.18938138 0.095503695 0.32549122 0.04429907 0.109060034 0.22660455 -0.14615855 0.103975974 0.2288332 -0.1794716 -0.20305298 0.020345757 0.0047719497 0.17420532 0.014544078 -0.23567227 -0.23376611 -0.021420786 -0.17989905 -0.25352845 0.03333889 0.054043908 0.071743935 0.032600384 -0.036398623 0.06347704 -0.03594433 0.030447686 -0.27010548 0.10849442 -0.05885914 0.07504194 0.14797622 -0.13867855 -0.031038558 -0.015393942 0.14224909 0.09862384 0.073174246 -0.19525139 -0.14283048 -0.07679401 0.1355533 -0.068772405 -0.15929829 -0.12282229 0.014064518
